0,1,2,3,4,5,6,7,8,9,10,11,12,13,14,15,16,17,18,19,20,21,22,23,24,25,26,27,28,29,30,31
-5.2969427e-37,-0.964047,-1.1468403e-11,0.9612649,-484.75098,-0.9744373,-1.8470978e-31,-1.0727074,-6.810118e+37,-0.95440245,4346643000.0,-0.92983687,-2526.5073,0.93328965,1.9032495e+26,0.9376449,-733875.25,1.0274324,-5365096000000000.0,0.9718551,3.9478937e-33,-1.03999,-1715754.4,-1.0715832,-1.0538116e+29,1.0395247,221946.89,-1.0458709,2.388963e-32,0.9187769,-2.4550185e+33,-0.90226054
5.2432662e-11,0.9864866,-8.238935e-31,1.1756897,1.9211385e-15,1.0295547,1.969681e+18,0.99544054,,1.2025994,4.408643e-05,-1.2162025,-19027603000000.0,1.0799475,1.4993036e-30,-1.0329801,2807581500000000.0,-1.0039632,-2.7306693e-11,0.83875805,-6.4078475e+34,0.96941495,-489.4801,-0.52756536,7194311000.0,0.978595,3.1297051e+18,-1.0853491,-148774580000.0,1.1009676,197081220.0,1.0851269
-2.8513143e+29,1.0466335,1.7581852e+27,1.0422791,6.8544654e-16,-0.8773606,3.7604372e+34,1.0113945,1.6403109e-27,1.2087635,2.537575e-19,0.98383856,1.2515076e+19,-1.1240671,-8.689377e-25,1.0609338,5.6621967e+23,0.9667651,2.0695664e+31,-1.0809879,1.124954e-10,1.0818655,-8.0049787e+31,0.949195,-24637098000.0,1.074896,-7.986548e+21,-1.0154719,7.507623e-09,-1.198421,-110.48079,1.1657279
-7.307972e-22,1.1090608,0.0006942986,1.025521,-1.28129155e+36,0.9782345,1.8065324e+16,1.0904464,889700030.0,-0.9493631,-2.8701012e-37,1.0890449,1.7284247e-12,-0.9228657,6.2427895e-32,1.1372843,5.559274e-10,1.107867,8.5487064e+21,-1.1270909,4.7425046e-32,0.87187797,30168402000.0,-1.034915,-2.448497e-16,-1.1599947,2.7044662e-20,1.205428,-382377650000000.0,1.1547978,-6.6055953e+22,-1.087514
-2.855953e-16,0.9369809,-16862144.0,0.78743184,3.3096176e-29,1.0212711,213922800000000.0,1.0330713,-1.3849804e-23,1.1003155,1.2240003e+24,0.9493735,-6382.8125,0.99259907,0.091402695,0.63297695,-236872980.0,1.0942614,2.4592424e+26,1.0098559,-3.4101391e+22,0.9010313,-17962463000000.0,0.67635065,6.152475e-20,-1.172843,-1.0830916e-28,0.82289654,2.6550982e-17,0.9898476,22927.75,0.9271947
5.3826016e+19,0.90507364,91890760000.0,-1.0155795,-2.0884068e+36,-0.8205543,1.9988794e+18,1.001954,-3.777275e-20,-0.9474051,-6926.3657,1.0052919,-6.244649e-32,1.0744653,-1.4017918e-31,0.84830356,-1.135156e+28,0.763902,-2.1687275e-07,1.0156857,4.2419064e-34,-1.0558287,-1.3947744e-37,0.82638943,2.4984954e-22,1.029101,1.2833953e-24,0.9158364,-1.5006717e-29,1.1136063,4.847957e-31,-0.7003006
-4.750528e+32,-1.003019,1192221700.0,-0.8932935,4.527156e-23,-1.0138559,-5.595443e-11,1.2071623,1.3198736e+21,1.1163881,3.136673e+31,-0.99493694,532468040000.0,-1.16367,1.093401e+23,-1.221718,1.737902e+35,-0.8756158,1.332421e-35,0.92246234,-9.950148e+29,-0.8248973,2486.956,1.0194075,-187084.02,-1.0783993,-8.3013954e-17,-1.1076076,-83402430000.0,0.74130803,8.4320376e-13,-0.985454
-0.018019212,0.8257353,-2.8225334e+28,0.86425173,1.9368729e-27,-1.0348792,-5.352191e-31,1.1119046,314848.75,0.96972597,-8.7624605e+24,1.0037982,0.00023044318,1.0181782,4.5453837e+36,-1.1626129,-2.5874884e+25,-0.973673,1.0789436e+29,-0.9402179,-2.5755238e+35,-0.8940295,8.246317e-12,1.06084,3.0865994e+25,-0.6289419,12553.552,-1.0583566,-7.001118e+22,-0.8837242,1.02694195e-19,-1.0125977
5.6656334e-18,0.7897305,-5.9589905e-32,-0.84722817,1.3192672e-36,-0.9032798,4.3552925e+23,-1.1339542,9.6040253e-35,0.97226113,-1.8901394e+21,1.1195555,7.239009e-32,0.91091436,3.5218824e-35,1.1092583,1.2137033e-24,-0.97751725,5.7258893e+32,1.082532,1.0163135e-30,0.95736855,8715975500000.0,-1.1464005,-2.4848025e+28,-0.9026731,-1.1987986e+32,0.97747546,-1.7113039e-23,-0.9384609,-6.101762e+34,-0.97514606
-8.424135e-37,-1.001763,-9756418000000000.0,1.0608462,9.994433e+35,1.1307243,-1.72626e-08,0.9536198,-2.900109e+32,0.7713177,1.8241446e-37,0.94144326,2.0186653e+31,-0.94464827,1.9780364e+30,-1.1275983,-1.7285094e+30,-1.0282211,-1.7749177e+16,-0.99141514,-2.4010391e+17,-1.105318,-65347730000.0,1.0139776,-3.070039e-17,1.0824481,-62.826633,-0.6536909,1.9159084e+26,1.0758505,-1.234158e-29,0.94895357
3.450152e+28,0.8441423,5.6887606e-13,-0.9621178,2.6885977e-38,-1.0617753,-3.275651e-08,-1.1858616,-1.2310569e-29,0.97825944,-2.166874e-15,-0.9649299,7.960801e+22,-0.89252955,1.5446782e+18,-1.0744644,2.7001634,-1.236264,5.6246e-22,-1.1197035,9.7925e+20,-1.1750988,-7.595165e-18,0.9808241,-5.780518e-32,0.8968138,-7.9655524e-07,-1.0260059,-8.616419e+31,-1.1005993,2.2375584e-30,1.1524748
-4.6122715e+26,0.91540116,-1.2929898e-18,-0.9983516,3.1147728e+32,-0.9574351,-1.01638476e+24,-0.9672102,1.4391898e-25,1.1482114,-1.1820201e+26,-1.1913342,-4.482445e+20,-0.9533627,-0.00021431684,-0.93260324,-4.5770495e-23,-1.0142086,-216077390000000.0,0.77470565,2.9119718e-09,-0.7490401,3.5356354e+33,1.0809075,-8.635041e-22,-1.0648041,2.7238257e+22,1.0112344,7.9168324e-38,-0.8581267,1.2033513e-06,-0.997163
-1.4976981e-32,1.1763631,208186430.0,-1.1303304,-4.946681e-16,0.8753396,1.4466408e-34,0.880684,-2.0826098e-19,-0.9540083,2.5739776e-32,-1.1008182,5.9957427e-05,-0.7034176,-7.377669e+30,-0.91506135,83920350.0,1.1629974,0.02435601,-0.96401715,0.0017713448,-1.041108,0.24491815,-0.9285911,-2.0698489e-13,-0.8007896,6.637221e-24,-0.96022844,2.0435355e-16,0.849787,1.1750967e+32,-1.064616
5.975713e-39,-1.0507469,-4.5533644e+30,-1.2143124,1.8085003e-29,-0.86383355,-1.9624385e+18,0.8444852,-7.5734783e+21,-0.9579877,-7715252.5,0.8477916,-5.841146e-16,1.1938635,-4.590997e+28,-1.1173872,-8.967393e+35,0.7049574,-4.922073e+24,1.1559639,3.4445303e+34,1.046706,1.3813695e+31,1.2195741,239808200000000.0,0.9921659,1.3643426e+23,-1.1542324,7.245262e+35,0.9865409,-8.042606e-18,1.0060669
-32713864000000.0,-1.0789919,2.1343513e+23,-0.9235863,28090000000.0,0.9595077,-3.6351446e+18,0.972579,5.408361e-31,0.97895557,0.0001582852,-1.0954791,-121301.32,-0.9637601,-3.0428033e-37,-1.1081904,7.6361123e+36,-1.072357,2.0598447e-38,-0.9871843,-1.0875668e+37,-1.0655575,-2.7636033e+35,0.48053247,8245435000000000.0,1.0618324,-2.8561761e+17,0.9200808,-1.7664515e+28,0.9027123,-4.600369e-31,-0.74814385
-1.249501e+26,-0.7994963,-6.6051704e+17,1.176773,-665437.06,0.73827153,1.851088e-31,0.9865039,3.8273568e+21,0.9910481,1.6233149e-12,0.97567296,-2.1537723e+20,-1.0030293,-3.894325e+25,0.95255685,-322901.53,-0.9551537,3.7866306e-14,-1.0267205,-9.096422e-10,-1.0834122,-1.2461931e-10,-0.78703856,4.651624e+23,-0.9890546,-1.2844099e+25,-1.0073991,-6.7683568e-28,-0.8178966,-5.057052e-05,0.9829208
5.600368e-37,-0.99839324,-1.4116871e-34,-0.9647458,8.412348e-13,0.9272657,-18453588.0,1.1130921,-7.064253e-29,-1.0999877,1.1332674e+30,-0.82946545,-1.4765162e-37,-1.0951095,-1.8187594e-24,-1.019878,7206106000000.0,-0.89390546,-0.032694478,-0.8539825,-9627424.0,0.8573608,2.6050256e-24,-1.179744,-1.6569683e+37,-1.0113283,-1.0134363e-14,-0.9722819,0.1661935,-0.5292776,-9.0195476e+20,1.1676855
93013270000.0,-0.9394447,-1.03930936e-32,1.0240687,5.416887e-19,0.983984,-1.0686181e+34,-1.0011955,-2.9375193e+18,-0.79870695,-7.347477e+33,0.98980933,1.223232e-33,-1.2653878,1177899900000.0,1.2856632,116479.73,1.0941424,-6.1930266e-33,-1.1288418,1.2132863e+33,-1.1426218,4.2714946e-11,-0.9972029,7.4263175e-18,-1.0793948,-1.4453705e-33,0.9279022,-2.319059e-25,0.99929345,-6.977228e-11,-0.9748528
2.539177e+24,-0.8556362,-1.4389696,1.1135961,1.4333857e-15,-1.1319693,9.666633e-32,-1.1614373,-1.4218815e-10,0.9669931,1.474442e+16,-0.83203626,110954.57,0.9379254,-2.1546672e-32,-0.91597897,-62403052.0,-1.1617907,-11.720273,0.881077,9.757057e-12,0.89486265,2.955062e+23,1.1107287,-6.495351e-27,-1.1130288,-5679.7725,1.2506701,-5.209332e-25,1.0624415,-9.408757e+28,-0.91920817
-656337660.0,1.1310389,-1.0642932e-27,-1.1815922,-6.2805895e+36,1.0948395,-4.590613e-10,-0.9486952,1.0118682e-18,-1.1680493,-1.6770491e-05,-1.1300398,5.6385696e-13,-0.9046408,-0.00017204185,-0.9870632,6.246642e-06,0.7956991,-4.77262e+35,-0.9298775,-4.121637e-22,0.99294037,1.5226968e+23,-1.0608492,-2.6882683e-09,1.1438037,1895740700.0,-1.1792227,-7.741072e-21,1.000631,-3.9635858e-25,-1.1926292
4.0762956e-08,-1.0511664,3.302275e+29,-0.97664595,0.0045054806,0.92943245,,1.1826621,-63353.836,-1.1547836,4.5931744e-30,-1.0699029,-2.5003905e-31,0.9487395,2.3754377e+24,-0.98973495,7.666811e+16,-0.82930344,-2.3146926e-24,1.0987241,-116704345000000.0,1.1235963,6.4425447e+22,0.9153216,3.4126996e-34,0.96565133,-121.377396,0.9233711,6.7421195e+18,1.2259377,-272714760000.0,1.1392478
1.6659536e+22,-0.9495995,-9.5192705e+31,-0.8382441,2.3391668e-32,0.9443619,-5.12763e-27,-1.094442,-6.1331337e+24,-1.062581,1.8494911e-09,0.9842737,-198761.84,1.0955782,8.1675525e+23,-1.2378979,410338530.0,1.1088785,-8.4453736e-35,-0.8287332,-1.0312669e-11,0.89794147,228196.9,1.1141299,4.252884e-13,-1.1040094,2.9465811e-31,0.943029,-3.801165e+21,0.97651297,-1.0086054e+31,-1.0152189
10850532000.0,1.0197225,-2.3289938e-27,1.0337337,1.9947126e-09,1.0343859,9634448.0,1.1352876,-80450980000.0,1.0623834,-5.808358e+27,1.1576307,-3.88829e+32,1.1933037,-2.1536397e-31,-0.83084863,-4.2032644e-16,0.9378825,-6.2877187e+16,-0.936783,2.149909e+20,0.88837904,-1.5860199e-28,1.0969787,191390.47,-0.99555063,8.1073117e-17,0.932783,27.876442,1.1560016,6.812024e-16,-1.0459105
4851.3574,1.1155037,5.237351e+35,-0.9872551,5772087400000.0,0.91242105,-1.5757961e-18,-0.7901036,-9.270007e+22,-1.0710267,-5.853076e-16,-1.0857348,-5.0198666e-17,0.8094104,85.69631,-1.1753491,-4.9555864e+37,-0.80041957,0.0078376485,1.0571437,9.2155733e-07,0.82861334,7.03268e+24,0.8380354,3.9698166e-19,-0.92561156,323.25208,1.1197457,-194476.53,0.9429582,341394230000000.0,1.1838714
8.063919e-13,-1.1114441,-2.1089727e-12,0.8377384,-6.048571e+33,0.899378,-1.768505e+18,0.956466,2.1381717e+21,0.9095675,11294496000000.0,-1.004996,-181163.47,-0.71294963,-1.6238109e+23,0.88606,-7.89025e-14,-1.1015906,-8.546022e+19,0.814729,-2.6062587e-14,0.8834388,7.191176e-25,1.1686401,-4.120871,1.1385229,3.4788306e-19,1.056027,-2.156512e-18,1.1409947,-2.4519026e-36,1.1180885
-1638866600.0,1.1423882,1.9652968e-25,0.9995116,1.4598918e+22,-0.9177428,-1.3598577e+28,-1.0409241,-1.8370672e-10,1.0427381,-9.238331e-31,-0.9563327,7.238492e-09,-0.93654686,-6.1279943e+32,-0.9479896,4.9550443e-16,0.8550304,100.26044,-0.8650604,-114.81188,1.1291628,-3.4424643e+36,1.0857567,3.5099742e-12,-1.0167722,-4417470800000000.0,0.9997118,8.988352,-0.9374416,2.692845e+35,-0.9690227
-4.2397292e-29,1.1783943,8.8095286e-16,-1.0639473,-2.30793e-14,1.0203383,4.8441863e-12,-1.2044547,-6.197494e-29,-1.128874,-1.2157047e+32,0.8518045,1.4718096e-17,0.94077826,-6.1943596e+24,0.9851087,-0.002946609,-0.59554404,14385223000.0,-0.829385,3.313058e-10,-0.86060196,-106.31149,-1.1513718,3.9887365e-28,1.0841202,124.999756,1.0799146,1.0625304e-14,-1.0205611,53.34163,1.0913975
2.565694e-31,1.0996478,-0.261547,1.164265,1120581500000.0,1.1213447,-1.1287542e+21,-1.1278195,-0.0004186817,-1.0551583,6.6203906e-34,-1.0165057,7.9028936e-16,-1.0470822,6.1152375e-18,-1.1337843,1.0426897e-14,-0.8252961,-1.5101915e-14,-1.122982,1.75771e-25,-1.1573077,-2.761949e-17,-1.038514,-0.0007121583,-1.1334565,9.223211e+25,-1.0875663,-4.1953958e-12,1.0935405,-2.1878593e+38,0.8815236
1.5424203e-23,0.96476436,-4.083421e-20,-0.8779612,137320290000.0,0.77413136,3.3676822e+28,-0.9941395,-9.711105e-21,-1.1483809,2.2279481e-36,1.1290468,1.301546e+37,1.0801055,-2.504393e-26,1.1144758,4.38324e-13,-1.1057343,-2.0051052e+38,-0.9355122,-1373.1548,0.998272,8.9980564e-27,-1.0974457,-4.110538e-28,-1.0299432,-0.0011746763,-1.074193,250.11478,-0.9393941,8.1986386e-14,-1.0849947
-4.5460804e-14,0.95781904,-3.387069e-10,0.9936965,-106507790000000.0,-1.0039463,1.8195909e+17,-1.1566103,2.0312035e-29,0.9156531,181681200000000.0,-0.9436829,2.5231376e+29,-0.9519742,57467330000000.0,0.813908,3.1320483e-20,-0.9559405,-4.3315618e-09,-0.99852425,6.755434e-06,-1.1293228,5.9036287e+27,-1.0322007,0.04728743,0.95062655,-4.6992533e+31,1.0887681,7.2249618,-1.1237876,3.3249957e-22,0.98974705
3.4752529e-13,-0.9527492,-4.381104e-15,-1.079945,770609.4,1.0949482,-813501640000.0,1.1921782,3.7427972e-07,-0.89509785,8.903764e-18,0.65719986,9.025078e-36,-0.76558644,1948.2136,1.122828,314049380.0,1.0388974,-1937.0768,-1.085914,-1.3331656e+21,-1.1635154,-1.7638297e+18,0.73944056,1.2683808e-35,1.0316887,1.3099809e-36,0.96471685,6.43224e+23,0.7031307,-2.8681545,-0.94199395
-0.00015077318,1.0628766,-6.5934627e-09,1.2510432,-3.495445e-34,0.90976006,3.1902214e+23,1.1452597,6.2764005e-22,-0.9460754,-1.6927974e-08,-1.0501333,2.929758e+33,-1.2336901,7.7330446e+17,-0.85115963,-8.586616e+20,-1.1385002,-1.962793e-16,-0.9806592,0.023317095,1.0339655,-3.2931226e-15,1.1891801,1.0242839e+16,1.1268026,-1.850034e+19,-1.1938541,2110912900.0,-0.9767719,9.98e-15,-0.9905051
-127476.88,0.9687389,32408152000000.0,-0.86292654,4.758833e+34,-1.0453643,2078834300000.0,0.9581857,0.22385885,1.1113379,4.074057e-20,1.0446376,-1.08355e+20,-0.7930023,3.748917e+24,-1.032192,1.0232989e+24,1.0478431,7.467311e-16,0.7129435,-1.05228874e+37,-1.1956578,-6.4444776e-31,-1.0924425,-2.2259127e-38,-1.1417031,2.1445655e-17,-1.1408864,-139192.5,-0.99867374,-7.758797e+24,-1.1275492
-3.4786807e-35,-1.0153021,5006120500000.0,-1.1242837,12650708.0,1.00157,-0.009101223,1.0182619,1.3130826e+19,1.0123322,-1.557216e-15,-1.0049661,-19132561000.0,-0.9023721,-8.255232e-25,1.0891031,5.1976388e-20,-1.1643736,5.949553e-36,-1.033048,8.60899e-14,-1.048351,-0.241147,0.861631,235319.2,1.0151873,3.7666654e-12,1.1030763,6.8946756e-05,-0.7740658,1124205200.0,-0.8173796
-9.060303e+20,-1.2146858,4267283200.0,1.1775477,0.00069941534,0.8467155,-5.547971e-18,1.173214,-4.8998897e+32,0.9577597,-939.23376,-1.0961367,-0.23186265,0.96258676,9.349694e+21,-0.94348776,6.5518066e-35,-0.98082286,-138.78798,-0.977242,-4.76214e+27,-0.7873565,-5.0808827e-37,-0.97883785,9.3566927e+21,1.0978884,101467.08,-1.0127056,-1.2697792e-24,1.1364142,5.0207647e-26,-0.95630205
0.11363475,0.9862347,158671880000.0,-1.1252612,-4.807709e-15,0.7545345,-1.0851764e-37,-1.05471,-0.014314088,1.0134615,-3.3168967e+35,0.9780197,-0.0001707548,1.0845288,-30937.717,-0.9014784,1.5153551e+16,-0.85137683,5.440649e+22,0.9319193,16880143000.0,-0.95273036,3.5522937e+32,1.1522307,5.477717e+23,0.86902773,0.022205457,-1.1757599,-0.0029678212,0.50773096,-1.4579309e-24,-1.1019572
1845964600000000.0,-0.9860171,-2.6841234e-30,0.9058958,13070520000.0,-0.8779177,9.668135e-10,-1.0730926,-4.7930833e-37,1.007977,2499110800000.0,1.1272936,-2.891731e-33,0.80955327,4.4893148e+19,1.118611,-2.786176e+19,0.9599937,1.8960988e-32,0.9290598,-43195530000.0,0.98302025,-0.112529345,-0.98637474,269353450000.0,-0.793561,1276.2928,-0.7657665,-6921009700.0,1.0848211,2892889000000.0,0.9408801
91.57278,0.91347015,1.5038384e-09,-1.0970899,-3.573328e+31,0.64557403,4.6746012e-35,-1.022314,-3.2254133e-21,-0.79820174,0.01325185,0.8955986,-7.607202e-08,1.01258,-2.2028262e+18,1.0662503,-6.1356536e-25,1.0844063,2.5118104e+18,1.0692674,5.10362,1.0020223,2.38578e-21,-0.93816936,6.737193e+27,0.97537005,-0.0740646,-1.0545284,9.348819e-30,-0.9489808,3.1913229e+28,-1.0826792
4.2707914e-11,-1.0192076,2.2163974e-19,1.109708,-1.3778812e-06,0.94182265,5.223481e+34,1.0662304,-2.0938456e+27,0.93028563,-2.8175457e+32,0.77516294,8.669396e-08,-1.0935131,-6.4610667e+28,0.9942251,-303245030000.0,0.9820876,-1398.0682,0.9108978,310341300.0,-1.1824168,6.8899394e+32,0.791881,-465.71198,-1.1288071,19029970.0,0.68427145,1.8275864e+31,-0.9605782,37.281723,-0.8863406
-6.559789e+29,-1.1629782,-120.95004,1.2186867,-1.13526345e-17,-0.92295146,633245550000000.0,-1.1538805,-3.7640606e-14,-0.8995628,-3.7471716e-16,1.1181508,-1939674300000000.0,1.1073464,-745.749,1.0139133,0.48930395,0.99825597,-0.011968682,-1.1878228,1.2458055e+22,-0.7977352,191636740.0,-0.93812746,-5671994000000.0,1.1909415,-2.8538737e+31,1.0650884,-14076049000.0,-1.125846,1.02468594e+18,-1.163226
3.7360865e-38,0.93942827,333656750000.0,0.90791386,-5.043943e+25,0.7342728,1.2200517e+34,1.0235126,9.081369e-28,-1.0263497,5.5459522e-11,-0.7301909,-4.8102183e-29,-1.2392778,2.105505e-20,0.8203873,-5.944144e-09,-1.0374552,-1.7656204e-24,-1.1102678,1.0710413e-34,1.0302112,-1888080.0,1.0193994,-1.3185274e+29,-1.1197875,1.3091346e+27,1.1180034,1.1254176e-18,-1.0024035,63075510000000.0,-1.1342573
7.9512025e-10,-0.92861736,-2.2962339e-10,0.93590814,1.0972606e+22,1.1772983,4381.564,1.1319928,-5049651600000.0,1.2274296,8.882433e-17,1.1737173,-9396.993,0.91596824,-2.1178361e-23,-0.9868299,-3.901894e-18,-0.90343034,1.2051773e-31,1.0326636,-1.5107208e-34,1.0147835,-763656900.0,-0.6538333,-3.2464956e-29,-1.0390459,3.0541993e+17,-0.78412753,46895565000000.0,-0.8402848,-6.358754e-17,1.1319455
-7.53594e+23,0.9706646,0.31074932,1.0803355,3.7370588e-19,0.9524868,196929700000000.0,-1.0831356,4.0502102e-33,0.89463836,-2.3562784e-34,-0.9772133,-97383.7,-1.2132266,-9.298724e+21,-0.999726,57.174503,-0.9820617,-16233924000.0,0.9581621,-7.202255e-31,0.91199666,-2.0884172e-10,-1.1346241,-3.575277e+21,1.0887002,6.3767685e-28,-1.0603356,1.0801135e-29,-0.9782842,1.640863e-13,-1.0975274
8.1925027e-16,-0.8937953,2.266583,-0.7293841,3448641500.0,-0.80798733,-7.769904e+19,-1.2167215,3.2590465e+16,-1.0154998,5.8943707e-28,-1.0174975,3.0314163e+27,-1.0871452,7415738700000.0,1.0572623,2.5124918e+30,0.7838854,-2.0004677e+37,-0.87002903,-8.592827,-1.126654,-1.4537943e+34,1.1209977,-2706302000.0,-0.82962644,3.2098704e+38,-0.99543375,1.5982803e+30,-1.0388551,1.4244239e-36,1.0131603
0.24930473,1.0138829,-334465.9,0.8160236,7.7642443e-07,-0.8865734,5.020878e-06,-1.0419167,-4.0228024e-22,1.1596963,-36673.402,0.9703276,5.89501e+19,-1.1627097,,1.1663938,-5.644903e+23,1.0084331,-27265882000.0,1.0599848,-3.0669995e+32,0.9862875,-1.5922784e+38,1.0309494,2.2192436e-30,-0.9819965,-1.0911739e-30,-0.8839846,1.4009545e-07,1.1386993,3.3671123e+29,1.1375365
-9.1412095e+20,1.102473,1.590142e-23,0.9467568,2.2247399e-07,-0.9642342,6.236798e-18,0.9878301,-1035260400.0,0.98649013,3.5456603e-11,-0.9363545,-5.1615624e-18,0.87784255,5.1626184e-21,-1.2138774,2.4279993e+33,-0.96579915,3.930148e-29,-1.2092733,-1.1779078e+19,0.7739103,-25.294518,-0.88291407,-5.7048662e-36,1.0974258,9.413828e-33,1.0928447,4.876367e-25,1.1865416,2.1838709e-16,-1.0813305
3.371652e-17,-1.0570657,40655.637,0.9730137,5.5350366e-36,0.7341734,8.359973e-30,0.9785996,1.6988806e+21,-1.0049667,-0.019471623,0.99397105,-4.4181534e-09,-1.1698388,-0.01388575,-1.1495278,-454.06262,1.2294744,-1.6581517e-10,0.9788388,-3.396834e-36,1.0957944,-1.6457293e-13,-1.109022,0.013426417,1.0501453,-4.901747e+30,-0.89509815,-3.0378735e-20,-1.091765,0.013817327,0.75878155
2.8572178e+26,0.57762307,1.1627515e+20,-1.1320884,-1.4814983e+20,1.0038211,6.6901915e+20,-1.0195101,-1.7848446e-29,-0.84800386,1.928083e+25,0.9882486,4.839423e+23,-0.97626454,-1.06508995e-26,-0.97046936,2.1125752e+28,-0.9676651,2.0494603e-31,0.9612764,4866446300.0,-0.78911144,2.5336766,-0.8984654,4.866548e-30,-0.99457765,-1.5942355e-26,0.9745799,-2.3849119e+30,1.1517959,1014162500000000.0,-1.157083
5.509838e+25,-1.1009213,1.9868627e-35,-0.89456815,-5.1557544e-20,1.0234048,2.3022836e-26,-0.9466635,-1.0629489e-37,1.077933,1.452315e+17,-1.0235347,-6.852999e-28,0.8334218,4.878071e-19,0.9762175,4.7863645e+28,0.9029129,-17691.96,0.9732418,-1.4469216e+21,1.1138357,8.916283e-22,-1.116628,1561623000000000.0,-1.0488622,-1.9534118e-17,0.8985755,-5.2482743e-09,0.966114,1.5844371e+25,-0.9447081
-1832.9843,1.1372378,9211667.0,-0.9256948,3.0133913e-27,0.79190207,-1464142300000000.0,-0.959363,-4.4596883e-26,-1.186891,-2.900665e-35,1.1171492,7.1124443e+19,-0.84151703,-4.711705e-35,0.8139413,-4.636643e-22,1.1213928,1.1175229e-29,-1.0320559,5.840906e+33,-1.0829338,1.7351807e-06,-1.0625058,-9.9062734e-36,-0.9414831,-5.0236794e-16,0.95690715,-5.4372686e-06,1.174641,-1.5388876e-24,1.0795122
4.0919643e-20,-0.9399303,-4.40472e+16,-1.1737193,-1.2091097e-28,1.0381396,-3.9705054e+19,0.7922906,-3.535219e+19,0.92918706,9.840263e-11,1.0248283,-1.2162722e-20,0.9929672,2.9324577e+25,-0.9377548,-1928.4204,-1.031618,-41415.88,1.0612595,-3.3663127e+31,0.9510921,2720.0703,1.0378438,-2.0346901e-17,0.9525629,1.1591574e-33,-1.1049165,-1.3012858e-24,-1.0113368,-2.0294557e+27,0.8379678
-2.29678e+29,-1.0584913,2.7800817e-38,-0.8351139,-7319919.0,1.0073532,-8.8817446e-11,0.9396955,556056730000000.0,-1.1224118,-2.7916258e-28,-1.0736605,3.1816984e+31,1.0575134,-92329550000.0,-1.168629,3.0583787e+38,-1.0852677,1.08550294e-13,-1.0904771,-0.009701077,1.0169264,1.7004829e-31,-0.9507291,-2.231793e-19,-0.9864122,-6.8483627e-07,0.895417,5.468855e-10,1.0442342,157.2647,1.0751225
-1.9480232e+16,-1.0315609,-3.2366568e-21,-0.96952945,-6.2341785e-26,0.9199431,-1.1189309e-30,-0.94193214,1.3499179e+24,-1.1102145,5.7750068e-12,-0.8836948,2.5471738e-38,-0.9144819,-8.2504875e-20,0.90250415,-6.768597e+17,0.9819024,,1.2737736,573533440.0,-0.7871825,-5.7388245e+31,1.0244232,27927.693,-1.0910506,1.3402466e+28,-1.2148454,-920423640000000.0,0.92189586,1.7060337e-32,1.1319104
-3.0179207e+26,0.9813998,4260.6343,0.82976216,3.299811e-24,-1.0090704,0.00153176,-0.9408739,-0.01460881,-1.130224,-3.2588754e+16,-1.2258273,4101940.5,1.0299281,4403616000.0,-1.1491446,-1.0007426e-37,1.0137519,3.1485597e+38,1.1584008,-3.331882e-12,-0.89945424,0.00019049154,-0.9319188,126726816000.0,-0.9834963,-2.524682,-0.9591399,4554706.5,1.1605753,-70.557335,-1.030386
-1.848787e+38,1.1197646,8.692816e-37,-1.0086278,8.556023e-20,-0.9612608,-1.6673084e-34,-0.8406491,1.0821527e-17,0.982565,-2.143865e-08,0.63566345,1.0878244e-18,-1.0439897,5.599436e-25,1.0995916,-3.3588175e+18,-0.9156942,-2.4783775e-31,1.0697936,-3.1207232e+19,0.9999293,-1.622529e-27,0.8308971,5.620988e-06,1.0347707,-1.6992717e-21,1.105895,-166077.47,-1.0321882,34951470.0,1.0633659
4.8908604e-14,-0.9270794,4.8886796e+20,-1.1612322,4.0584537e+21,-1.147436,-6.222819e-27,0.9205665,-8769132000000000.0,-1.1057323,1.1912233e+27,1.075401,-1.316636e-20,-1.0346693,-4.0330448e-36,-0.9644081,1.4613678e-25,-1.122782,775379100000000.0,-0.9568424,3.7096446e+24,-1.0733068,-6.724847e+16,0.88675666,-9.717869e+37,1.06133,168125.88,-0.92999375,-8.814348e+25,-1.1627036,1.1301241e+25,0.9218722
-1.1613545e-07,0.9994515,5.963847e-20,-0.9030826,6.411308e-36,1.0298266,-3.9204742e-21,1.0368233,-1.50502e-18,1.0142002,-17502149000000.0,-1.0015677,3.5382906e-25,-1.030796,946.56604,0.7509602,-682.96844,0.95803136,-1.3692648e+35,1.1715465,-0.00047671635,1.148217,17882.666,0.993897,-9.251564e-33,0.8647048,-8.05286e+36,-0.86898434,1.8770946e-30,0.9958057,8.704643e-29,-1.0038248
6.873988e+16,-0.9803509,2.1850402e+18,1.0413388,4.9094954e+36,-1.0649157,-4.081145e-07,-1.11618,-3.2459847e-20,1.03566,351389470.0,-1.0708313,-5.227828e+23,1.1777681,4.2439687e-20,-1.0860671,0.002801718,-1.0044527,9303212000.0,0.95803344,4.8563496e-08,1.0544537,-2.9242714e-10,0.9443848,1.1109894e+21,-1.0173757,-4.2960945e-08,-0.66052836,-5.244761e-29,-1.1879604,7.315209e+35,0.96943593
1.4772699e-09,0.78617656,-3.7415734e-26,0.9306221,-6.092439e+21,-1.1095573,2.0624718e-22,-0.8916354,-3.9042397e+31,-1.0427965,-0.094619505,-0.6256234,5.044625e-30,-1.0347486,-1.3383179e-34,0.8450365,-1.11811715e-32,-1.13518,8.613322e-24,1.0037045,-1.6702982e+29,-0.8878531,-4.4695507e-06,0.96083146,2.7722372e-25,0.99840844,-5.6655633e-08,1.1329594,6.762006e-34,1.2542632,3.4310708e+37,1.1171888
-2.178157e+21,-1.0366962,-2.714338e-12,0.9923191,-128287.81,1.1851256,4.8673797e+34,-0.8939568,-1.81174e-11,0.9595316,3.7546877e-29,0.95162463,1.5474561e-28,1.0683799,2.04456e-12,1.0059589,0.0013170106,1.0611234,0.033696167,-1.0186553,-3647.8481,0.8025484,-5.832121e+20,1.1015437,0.056541655,0.7662138,1.746242e+16,-1.0592221,-3728951000000000.0,-1.073747,-1.3076613e+29,-0.9924906
5.010296e-18,-1.0603417,-21503635000.0,-0.99821603,-8.2162885e+33,0.95704937,1610385.5,-1.1257721,0.006396073,0.9388878,2.7707847e+29,1.1606897,3.023887e-35,0.7966971,9.123757e+22,1.1057444,2.4953597e-05,-1.1785576,722693750000000.0,-0.567761,1.0315467e-34,1.0227581,-1.4272309e-19,-1.1271132,1.4331805e-31,1.1157507,-1.5128025e-27,1.205118,-6.657508e-08,0.8950208,-0.0043242867,-1.1282215
-2.9565608e+26,-1.0243279,1533.336,-1.2078226,-7.0205583e+16,-0.4943095,-378076740.0,-1.0534496,72068860000000.0,-1.0267502,3.2441428e+38,0.98064077,0.048063803,0.9027191,-1.3132369e-07,-0.9293036,-7.4894914e-34,1.0714614,0.38394424,1.1455413,-7.962303e+25,-0.8228838,2385.1404,1.086965,1146263.6,-1.1334709,8.145145e+17,1.0820925,-3.5186596e+20,1.2154193,-5.5124976e-27,1.1296762
2.7830843e+19,-1.0727279,-2.88935e+36,-1.0025932,-3.1587022e-06,-1.088106,-0.00019457091,-0.9265241,1.202271e-12,0.9320077,6638520000000000.0,1.0680386,-1.1990453e-25,1.1937639,3.7145824e-34,-1.0384136,-433269120000000.0,1.1004097,-1.2131206e-18,0.9416607,-208489440000000.0,0.97198373,2.089255e-12,0.9657043,427384730000.0,1.0910108,-8.028775e-17,-1.1819996,4.0597365e-07,-1.1006838,-1.6424309,-1.1022172
1.5936487e+22,0.82581013,1.1821632e-17,0.9206899,-8318.468,-1.1047783,-1.0525631e+21,-1.078304,-1.8739249e-25,-1.0661626,-0.11766519,0.974445,30627.17,0.891803,1.3500142e-15,-0.99857825,-0.0040269303,0.86597,6.4322975e-18,0.8380315,-2.3129603e-35,-1.1292493,-5.4718266e-19,-1.0034063,8.3772915e-07,1.0997173,-7.5842556e+26,-1.1376083,-3.652431e+36,-0.90909284,1.6683085e-09,0.948536
-5998782700000.0,1.1678718,1.08418316e-10,1.0653899,5.721061e+19,0.50190127,212671340.0,-1.1092935,6.0599675,1.0250852,-4491437000.0,0.97556126,-4.1199574e-13,-0.9812477,2909.875,-0.9555205,13343874.0,0.97253245,873114.8,-1.2361877,2.4205963e-29,0.911609,5018504000000000.0,1.1309829,4.556622e+24,-0.94566834,-3.9079834e+16,-0.93027765,-2.3439882e+28,0.9080827,-0.0015521306,0.9032229
-1.224486e-33,0.8730136,-31658480000000.0,-1.0514528,12398284000000.0,-1.1157826,-6.4336604e-32,0.96853304,5.303998e-30,0.93446547,-7846696.5,1.0868332,-3.250923e+23,1.118847,3573.9321,-0.9758389,8.180875e-16,-0.9319282,4.919972e-34,1.029302,51311416000000.0,-1.1100897,4.3681592e-20,1.0114455,4.1994692e-11,1.1241102,-1.4986292e-19,0.8355985,2145661900000.0,1.1345946,2.1302589e-37,0.78174734
2695055000000000.0,-1.032054,1.0852962e+21,1.0001123,-0.0007258397,-1.0254045,-4.4687576e-07,0.9697721,-0.0007971804,-0.78205127,3.9887505e-21,-1.1817936,-507886430.0,-0.90831244,79213.64,-0.951311,-1.4137438e-10,0.8333977,-892.3617,0.84259564,-2.1877434e+29,0.77131087,-2.0448218e+26,-1.1843342,4.5858327e-33,-1.148037,-1.0334104e-24,1.0261706,-2.151759e+21,1.0884795,-8.764942e+17,-0.8978253
285458500000.0,0.8180297,-4.2954895e+36,0.9492638,-1.5893175e+27,-0.9485016,1.7168662e+29,-1.1731023,-2.4216584e-24,1.1502038,3.819275e+36,1.0376953,-7.29398e-22,-0.89355844,-255894800000000.0,1.1696388,-2.2518718e-36,-0.62551457,-1227389300.0,1.1100602,-7.4655144e+33,-1.1830145,-3.5386343e+28,0.82980275,7.219465e+19,0.66762346,3.1761194e-34,-1.0868311,1.1180563e-23,1.020095,-2.5319164e+25,0.8623979
146933800000000.0,1.0359061,-5.9447144e-15,1.1844549,3.2257887e+35,0.92365956,-21298869000000.0,0.99226195,-7.002505e+37,1.1416174,-2.9848616e+26,1.0754042,-2.5464543e-25,0.9091329,2128539100000000.0,1.0343333,-0.000655414,1.1146955,-4.6727603e+24,0.925475,-4.092876e-16,0.9716612,1.8643039e-11,-1.1691834,-4.737367e+32,0.8975736,3.08611e+34,1.0959842,-1.1074593e+28,-1.0358294,420642700.0,1.0238241
1321.7708,-0.920025,748226050000000.0,1.1454009,0.0003473998,-0.9908383,-2.5382687e-25,-1.0153884,1130.3049,-1.1057427,-4.5311044e-10,-1.1581384,2.8964855e-23,0.9560059,5.4394828e-17,-1.1067168,-2.5603918e-19,-1.0562347,1.4943895e+31,1.0629506,-2.8623414e+20,1.1059597,-599.5783,-0.7333197,7.5144434,1.0364546,-3.5672204e-26,0.79706275,0.040348653,-0.8719283,-2.0875287e-31,-0.7434871
-2.8940552e+35,0.8567848,3.7412748e+27,0.8887898,-9.660098e-35,-1.0548925,7.491025e+25,1.1647075,-183790940.0,1.0439752,2.5710832e-23,1.1652339,1.3343076e+19,0.75780404,-1.04847e-28,1.1738145,-0.0343595,1.1392982,0.00046324692,-1.0771632,-698378000.0,1.0757115,6.173553e-34,1.0631125,1.2424162e+23,-0.9456457,-3.2992178e+30,-1.1698346,1.0790429e-27,0.96730477,318016.47,1.2143263
2.9943564e-32,-1.2013335,1.6076536e-24,1.0011655,-1.9543252e-19,-0.73470753,-3.513106e+30,-1.0077206,2.2554245e+23,-0.60826117,-1574131600000000.0,-0.97348523,-2.6154151e-14,-0.94841415,5.431108e-33,-1.1500711,5.5717383e+32,-1.0183531,-1.9432256e-35,0.8269804,1.251324e+38,-1.0348444,4.2090284e-28,-1.0193111,2.949299e+33,-0.9181663,-7.900336e+18,1.0430654,3.450069e-21,-1.1641428,-2.2261612e+29,-0.9018157
-3.4207873e-20,0.97204125,-7.7261923e+25,0.9370834,2.6888302e-17,1.0016744,220473090000000.0,-1.2122899,3.9658166e-09,0.91018766,-4.953614e-24,1.0564878,-9.009543e-15,1.208138,-3.9899047e-07,-0.899981,-665614.44,-0.91645736,3.5650584e-25,1.2189564,-4.8780435e+28,0.9398547,1.3626971e-28,0.8775303,-1.00547424e+27,0.9838535,-0.096550494,-0.95797396,-7.138206e-26,-0.9643986,-1.971831e-35,1.0780084
3.9533877e+29,1.1302356,-2.54631e+17,0.8913265,-3.0885203e-09,0.87301326,1.7726604e-21,1.013269,-337889640000000.0,-1.0236045,-2.4918825e+33,-0.5982738,0.000100266014,1.1078876,-1.6656412e-22,-1.0774102,,-0.984458,-7.4441695e-13,-0.72992414,14120.821,0.95898503,-7.301834e-34,-0.9749201,-1.1468409e-17,0.89901507,-3.165061e+21,1.2001305,4015375.0,-1.1657587,-2616203400000000.0,-1.1082027
-2.1387403,0.95368624,-12212325.0,0.8492366,-7.960569e-07,1.170855,3.6401315e-31,-0.9709213,2.3428062e+33,0.9129077,-0.0021993492,-1.0989676,2.4588454e+29,-0.97002107,-1.2177707e-18,0.9286301,-5.768244e+22,0.7953178,-1.9244226e-06,-1.1320672,5.534944e+21,-0.9058703,-1.4857562e-29,-1.1332331,2.3713378e-25,1.1473322,-855.21155,0.979605,330743940000.0,-1.1274358,-3.6283654e-23,0.71714514
-974.7901,-1.1262732,-1.5393763e-35,0.9383745,-2.3240476e-10,0.9166453,6.171779e+23,1.0840287,-9.610637e-11,-0.9457383,3.505371e-23,-1.0069594,7.559468e-25,-1.071259,-839289540000.0,-0.7503309,8.031433e+34,1.0884994,-0.004273812,0.8111144,-7.3383646e-17,-0.7537952,-1393900.1,1.0262357,8.4984777e+37,-0.93523055,2.2644113e+33,-0.9886724,9.0568455e+18,-0.98227656,51521.727,-1.1494951
-83225800000.0,0.82881814,-2.6292475e-21,0.90965796,-4.4705826e-07,-0.9993551,3.9662e-17,-1.0628674,1.7518944e-07,-0.9935442,-5.3176833e+19,1.0350826,3.065086e-19,0.95790404,12.501068,-0.9966402,-9.952373e+26,-0.9884071,-3.629365e+18,0.87229097,-2.099115e-16,0.9118378,1.2357623e-20,-1.2062389,3.3653828e+24,-1.0227014,1.096197e-33,-0.8013309,-3.065398e-10,0.9819678,-6.067056e+36,0.9433343
-1.396608e-10,-0.98111916,-1.9580864e-29,-1.1457791,-1.2839103e+22,-0.95005494,1.8507013e+36,-1.1215183,-5.1295313e+28,-0.89430577,49145.305,0.989135,-1.6790742e+23,-1.2543136,-8.2565253e+18,0.94977266,2.3880932e+28,-0.95624727,3.7147712e-37,0.88815033,11.407423,-0.88172984,1.7286183e+17,0.9966941,-185336970000.0,0.7564539,2.2093611e-20,-0.9267548,354.3436,-0.9812494,3.7393185e+25,-1.1639456
5.581716e-31,-0.7877788,-4.1350782e-25,0.96307355,1.1458584e-32,-1.0533735,436164220.0,-0.9631051,0.043798283,1.1175089,-3.7933395,-1.1444117,-7.1396204e-14,0.9139457,-0.19815026,1.0774856,4.1351922e-07,-1.0334406,-8.640199e+27,1.1223007,2.3564596e-32,0.9271727,6.2415725e-35,-0.9847859,1.124529e-23,-0.98003286,-1.2801409e-23,-1.1107559,1.4041129e+22,1.0768496,3.277621e+24,-0.94414395
-4.6060263e+28,1.1682379,2.3433548e+17,0.9255574,0.17587468,1.0513221,2.5600075e-36,-0.6198797,-3.2229768e+17,-0.84444445,-2.2659455e-16,-1.267499,2.5505684e-21,1.0393088,-4.501655e+21,-0.97902316,-5.1796358e-23,-1.0510812,4.880112e-08,-1.0178925,-4.4427256e-10,0.90259075,572023900000.0,0.9416105,9.7623245e-31,0.9789071,4.4449297e-07,0.8447096,1.6725646e-32,0.85624135,-1.976602e-15,-1.1525551
8.709758e+30,-0.9815785,1.6494768e-06,-1.1689115,7.3777733e-06,-1.1387348,13527.6875,-1.1502422,-4.939681e-07,1.0666605,8.243924e-37,-1.183923,-4.7920275e-24,1.1643846,-4.585614e-21,0.75357056,4.7560544e+31,-1.0691155,-0.0028406484,0.9222409,-1.0659118e-19,1.0661443,-0.0021592204,1.0227782,-2.1039843e-16,1.0516313,-63159080000000.0,-0.9386576,1.929015e-39,0.9080633,-2.4796462e-11,-1.1407316
1.3083514e-08,-0.8373594,-4.2173905e+21,1.1597127,3.7383552e+28,-0.96392936,2.5463314e-09,0.82756686,-4.8142206e+17,1.2231545,-3.4817662e+24,1.0167738,-2.046644e+26,-1.1162202,-3.4365751e+16,-1.0797979,-7.2607307e-23,-0.96393913,-916434.0,0.76252604,-1.5411981e+18,0.8360936,-5.266502e-12,-0.87912583,-540061370000.0,0.9956917,6.477496e+23,0.9922634,1.1574319e-26,-1.0837063,-665748700.0,-0.96013653
3671716000.0,1.1415392,1.1080832e-12,-0.91110355,4.514372e-20,-1.0258056,1.0213342e-24,0.9281192,7.044277e-07,1.0814414,7341496000000000.0,-0.972108,6.2339614e-13,-1.0748891,1.0840827e-12,-1.040191,-6.194027e-17,-0.97188896,5.040815e-12,-1.1327386,-5.7463746e-19,-1.0376931,9553503000.0,0.9468914,-1.5737666e-06,-1.1287794,-3.402416e+17,0.97285056,204.87817,0.9931815,-8299135.5,0.8207205
-1.0102437e+33,-0.8873276,2.615924e+17,1.1543218,-1.0495881e+20,0.8212778,1.3771969e-19,1.1291138,2.49232e+32,-0.94716054,3.168352e+26,-1.077484,-1.4924863e-05,1.0886037,2.3594947e+34,-1.0765355,-9.878444e+21,-0.76778495,-1.0958864e-15,-1.1419814,-2.5513136,1.0568497,-6.608011e-11,-0.5691762,-2.3999017e+36,-1.11229,4.037849e+35,0.939708,-6.3992314,1.0855389,2.3535912e-07,1.0300019
11970695000000.0,-0.9189274,74393710000.0,-0.9928415,-3.5682538e-25,1.1692501,7.5664605e-13,-1.1855235,1763582300000.0,-1.1741484,-33423.277,-0.9084994,1.1579911e-15,-1.0107428,-4.634938e-24,0.6690151,970128600.0,-0.8877651,-3.6064486e+24,0.8637618,-1.4172181e+18,-0.8091536,1.9739796e-37,-0.99389696,5.225011e+31,-1.0262724,6.145427e-14,1.2507318,-1.3251379e+31,0.8777382,9.702322e-12,1.0546372
-3.7798798e-06,-0.8369383,8.527825e-09,1.1126475,7.228476e+37,1.1672344,-1853.309,1.1223984,-8.256311e-23,0.97354627,25073865000.0,-0.98858255,412309660.0,-1.1526713,-48.834866,-1.0458554,49345.555,-0.89168364,4.0918176e-33,1.174481,-5.6698236e-11,1.0166447,4.8472455e+33,0.95272195,-7.398046e+37,1.1658604,164.96176,-1.0594312,-3.1209405e-20,-0.95223314,-183140420.0,-1.0239699
-5.365645e-33,-1.03539,-2.6402137e+36,0.91317195,-1.14842354e-35,-0.9922849,-16589308000000.0,0.8607492,5.329128e-18,-1.0601044,-120978.05,1.0623243,3.1415436e+21,-0.8380856,-1.6995956e-22,0.9399531,1.3362258e+18,1.1208372,0.03675264,-0.6225158,-8.482602e+30,1.0993351,-5.283378e+31,0.9441413,8.447738e-19,0.8585412,-905435340000000.0,-1.1339014,-868880600000000.0,-0.72520036,-1.7842046e+25,-1.2026116
-8.420036e+25,-0.9362637,201.82343,-0.9494806,5489744000000.0,-1.1237321,-6.1861454e+30,-1.0667068,-4.632989,1.137657,1.2512968e-30,0.98608273,-1.6723839e-20,-1.0391355,247721360000.0,1.0782374,6.926875e+17,-0.72048783,-4043735.2,-0.9260015,5.7064825e+35,-0.89646906,1.9455665e-22,1.0554718,-2.361328e+28,-1.0280387,2.1254922e-31,1.0273099,-32734185000.0,-1.1841168,-8.4451805e+32,1.1079032
-1.5669673e-37,0.86903197,6.3703506e+25,-1.0548589,-8.707045e-15,0.9458003,-3.7852687e-19,-0.9441132,7.695291e+31,-1.06604,-3.0180665e-12,-0.7157401,-1.7190292e-19,-1.1482924,-1.9887643e-29,1.0347431,-4.236628e-16,1.0272079,1.734545e-33,-0.9570764,1.1516529e-36,0.9869633,9285443000000000.0,1.0202429,3.3397836e-27,0.9818023,5.846902e+23,-0.8946958,8.935332e-13,-1.1176386,-3.8105232e+21,-0.9407365
1.6541396e+38,-1.0102755,1.988778e+25,1.093573,-4.859214e+16,1.082689,-3.075964e+33,-0.9681693,29372.318,0.77397555,-9528.487,-0.82640606,14732.183,-0.9552598,5558.0513,-1.0189149,-7.2728436e+32,-1.0991218,-3.296676e-30,-1.0967851,1.1323856e+31,-1.1811339,-2.6351092e-24,0.94868726,-2214.851,-1.1792889,518920570000.0,0.9864928,-3.913974e-31,1.1287916,1.4817833e+28,-0.92321885
3.892079e-13,-0.9640851,-4.5994167e-11,-0.8747751,-2.0078124e-15,-1.1140997,2.951515e-36,-1.0003507,2.5192503e-20,1.1479177,-3.826691e-20,-1.0295379,-128840.01,0.90929747,-864020450000000.0,0.80971795,0.00017717307,1.0979056,-3.1184162e-21,1.1602614,-1.4247136e-35,-0.77426887,8.87687e-17,-1.1786617,-2.0834577e-35,-1.1175542,-3.3048592e-28,-0.83850414,4.165894e-09,0.7212962,-2.3852851e+32,0.79517376
2.080404e-10,1.1386639,-2386391000000.0,-0.9387862,-8.176446e-24,-1.0140263,-3.4849148e+24,-1.1613914,-2.1793569e-05,0.9561781,-5581424000000.0,-1.000192,-8.406588e-36,1.2593809,-1.8587526e-17,-1.0062797,-155941.9,-1.0212835,-1.737446e-14,0.96026605,-2.4082372e-31,0.8256978,1.6449993e+22,1.2080433,1.0507204e+33,-1.1074675,4.5513943e-07,0.92211956,500932860.0,-1.1904833,8.624098,-0.96886957
953647.4,-1.0388424,6.604839e-11,0.97133976,1.710407e-18,0.9758055,-1.291601e-26,-0.99804527,-1.11449254e+24,-0.9794094,-1.9194308e+22,1.1077918,-3.0959106e+35,1.0991684,-1.5950033e+27,-0.9310404,-0.08551234,-1.1344078,-158.61707,0.8303429,-2.2856099e+27,0.9664218,-2.233066e+29,-1.1027452,4.2686812e+36,0.7237841,0.0011221735,-0.96834034,2.3143726e+24,-1.18757,-3.4738666e-06,0.96864223
-1.115141e-05,0.7413991,-8.266959e-16,1.1448911,1.0560748e+19,-1.1972071,-2.6538607e-20,0.921548,-1.332258e-34,-1.0020006,-4.107211e+33,1.068231,9.302353e-27,-1.234135,-2.0441414e-31,1.03143,-7842.4683,-0.93810546,-8.970335e-28,1.085469,-1.5478289e+28,-1.006318,2.44206e-36,-1.077016,7.6798506e-23,0.96054226,-2.6853364e-21,0.98224133,5.4331097e-30,-1.0924945,9392.303,-0.9445958
-8482796600000000.0,-0.98385507,1.1918013e+20,0.8950181,-4.0389245e-20,0.83844334,-1.0805519e-32,1.1598958,-3233364000000000.0,-1.1320578,5.7914932e+19,-0.8891104,-3.9759134e+21,-0.91385907,-0.2461093,0.91730684,-3.2460512e-34,-0.95414037,-1.02152385e-16,-0.93319595,8.589388e+18,0.9903175,-3.6548195e-12,0.88708943,-4.9566588e-12,-1.1106435,1.96586e-26,1.1128763,8.143213e+24,-1.1363746,2.7625043e+18,-1.0282316
7.00959e+26,0.4917967,-4501502300000000.0,1.130946,-1.6121832e-29,0.93521345,42690020.0,-1.2148833,8.8433344e-33,-1.1261257,-234563880000000.0,1.0951713,-2.485749e-23,-0.9953009,-3.3405394e+21,0.9291571,-1.4689074e-05,0.9033331,7.3848916e-32,-1.0278953,4.6533125e-23,-0.9519213,9.421171e+22,0.7682994,3.7317113e-10,1.0637051,-4291210000000000.0,1.1652362,-95136050000000.0,1.1298109,-8.514244e-28,1.0020643
1.6406115e-25,-0.91096914,-1437837100000000.0,1.0456842,1.8685345e+16,-1.0724802,1.147134e-05,-1.0444022,-2.086049e-05,-1.1267387,5.040545e-06,-0.97925156,-7.634682e+28,-0.9416152,-1.3552945e+19,1.0081334,2944478200000.0,0.89434576,2.9006817e+37,1.1877416,-4.2727252e-11,0.9331886,348389660000000.0,0.98003775,1.7045945e-10,-0.88007283,-4.8499227e-05,1.1373038,-507328.53,0.9275583,-6.804592e-32,-1.1082044
-0.00040301902,0.925527,-2.6498447e+28,1.0973157,30866610000000.0,-1.1332594,-924444000000.0,-1.1500407,7.035044e-23,-1.2534847,-6.608118e-10,-0.896078,8.36054e+18,1.155863,1.5897641e+28,-1.0266782,7.5944467e-20,-0.9995525,1.1377314e-09,-0.9844413,8.755215e-13,0.92797107,-8.976905e-20,-0.9786198,-6.274843e+16,-0.948791,-9.035508e+35,-0.9617267,-2019742000000.0,-0.97633326,0.84392565,1.0116498
-2.2420856e-16,0.9680216,-3.9442552e-27,-0.76522166,479418.5,1.1142637,-5.010108e+31,1.0166593,955.20593,1.0483105,3.0889736e+16,1.0059268,2.6541887e+29,1.0780605,-8.2939353e-19,-1.2547253,-5.664983e+25,0.9826032,1.1946729e-19,0.7551481,5.8576373e-25,-1.1015544,-153078920000.0,-1.0136405,9.4883256e+30,-1.091448,-9.521523e+33,-1.0821732,-9.592308e-24,1.094365,-0.11905579,-0.864359
4.374877e-17,-0.909141,-1.8242294,-0.79837,661681700000.0,-1.031054,0.009235091,-1.001277,-27199434.0,-1.0662413,-2.0722388e+29,0.9585459,-1.5637823e+22,-1.020473,0.0005733155,-0.87340575,-3.9592486e-11,0.89125144,-5.9766203e-33,-0.962059,-107286.18,1.12809,-107511185000.0,-1.0953319,3.1806456e+21,1.0405669,7.335558e-19,-1.0279168,-5.5031233e-11,-0.9009018,3.5635825e-09,0.9415016
-8.920535e-07,-0.8525749,-1.3434853e-12,1.0124458,-5.48664e-12,-1.1272043,-0.36548963,1.0744853,-3.1137655e-12,1.2164321,-21636284.0,1.2318116,-2.5547102e+36,0.9014817,-1.8009383e-10,-1.0436044,1.1489738e-18,-0.9865251,-42.16791,1.0491527,4.3844544e-38,-1.0873388,3.2321573e-29,-0.98301446,2.9363164e+33,1.1279995,1.1018773e-12,1.1198277,8.359553e-33,0.96116936,-1.3859823e+33,1.0659878
2.5974982e+32,1.0728275,-5.0316986e-20,-0.9501856,3.259706e+35,1.0967733,0.011307607,1.117472,2.3994748e+28,0.74357384,3.0445164e+17,1.033553,7.717432e-31,1.0613227,-2.4595538e+37,1.1484754,-4.566369e+36,-1.0256478,-6.8015064e+28,1.074689,-1.4026159e-05,1.0824862,-7.920913e-26,1.0554379,1.3816095e+36,1.1472685,5.1400065e+20,-0.99327826,-4.0359982e+18,1.2321906,-533296020000000.0,-0.9926854
-3.095532e-11,-1.231113,-1.2911585e+32,1.0924253,-1.9866872e+34,0.8376807,2.1233789e-26,-0.75062144,162349580.0,0.914465,-440.72247,-1.1359493,-1.2671742e-08,-0.97834295,8.144881e-09,1.0414045,-2.9112959e-21,0.97427595,-3.7901e-07,0.9879,4.6261976e-20,0.82669127,1.6143602e+29,-1.1415616,1.0107519e-20,-0.82276267,1.8572917,-0.91836005,-1.892933e-28,-1.0416585,-11254856000000.0,0.9356553
-15901.805,-1.2125746,-4.9728327e+26,1.1271062,7.344139e-24,-0.83138645,0.18185,-0.94903916,1.2739642e-30,-0.9745902,-0.004193369,0.95978445,9.785907e+33,0.94251096,-549473250000000.0,-0.90943265,-9.561023e-31,-0.97571254,7.768052e+37,-1.039252,35.761044,-1.1516794,-2.9687229e+31,0.92688274,-8.951086e-32,-1.1673642,485847900.0,-1.0185645,3408343300.0,1.107401,6.0860812e+35,0.81838536
1.7023968e+36,-1.018656,-2.2970046e-37,-0.8827691,-8.290779e-22,1.1304072,-0.0034971926,-0.98434883,-5.051818e+29,-0.99192065,4.9568358e+23,1.0892938,-4.0693446e-36,0.92104906,8110635000.0,-1.0497057,1.3377934e+29,1.1410182,7.727156e-12,1.0824972,4882.928,-1.1674566,-7.518529e-15,1.1314844,-971880460000.0,-1.1254016,-4.8223022e-32,1.0063663,1.6084512e-08,-0.90624815,-1.49749e-24,1.0722163
141249180000000.0,1.0760798,6.8371616e+30,-0.9459996,7.045867e-06,-1.0190728,-9.0293375e+23,-0.9913002,7.306982e-21,0.85159194,-1.1283759e+30,1.0026522,4.8515627e-26,-0.8384859,489079680.0,0.939287,1.9607675e-11,-1.1353645,-3.377644e+21,1.1037668,-472933960000.0,1.0398103,,1.1316773,0.44286403,0.93720824,-1.9123709e-08,0.95185304,-7275735400000.0,-0.9965965,7927245600000.0,1.0974327
-1.0916746e+23,0.9766576,-2.3277048e+32,0.90649,-1.177139e+32,0.8256769,2.81055e-21,-0.8763741,-6.8972735e-37,-1.2000526,19709.277,0.94324815,8.868943e-33,0.86966825,-3483200800.0,0.9152222,1.1377729e-27,0.9884497,9.0888464e-23,0.91529995,-3510363800000.0,-1.1180574,-1.5070278e-20,-0.772874,3.0737178e+24,1.1006933,-7.778269e+36,0.97047895,-42385404.0,-1.1027128,8.323358e-25,-1.1471369
-201962050000.0,-1.1776283,-0.0028894201,1.1491832,8.5030765e-32,0.95297337,2.8881851e-21,-0.98595,6.277189e-36,1.1250119,-1.1404278e-14,1.2536484,59711307000000.0,-0.9970153,-4.5610977e+27,-1.0049423,-1.6239155e+17,0.8778377,-2.3539221e+36,-0.9406052,-8.29721e-27,-1.1149844,0.00011539636,1.0246334,-2.467623e+24,-0.94671714,-6.473296e-21,-1.0267665,3.7841384e-28,0.9786582,8.240665e-15,-1.0291207
1.712779e-14,0.9430633,-2168597800.0,1.0514301,6.911282e-39,1.0912294,-469912670000000.0,1.1684437,6.655654e-36,0.9883874,7.599209e-25,-0.47964588,2.4948542e-07,1.0246649,-8.245097e+32,-1.1741372,2.260858e-19,-1.0838174,1.5270293e+22,1.0895578,1.4973431e-24,-1.1331534,-1.3292414e-12,-1.053877,4.795239,1.2192967,2.5473322e-25,0.87250346,-1.2020337e-30,0.9869661,-5.655166e+30,-1.0835
2.497324e-30,-0.929696,1.0618389e-05,0.9096747,-1.6773752e+16,-0.84947217,-2.1837102e-30,-1.1409819,8.657152e-10,0.93072915,3.3463757,-1.2768309,173727920000000.0,-1.0016164,259898750000.0,0.81999284,8.484474e-31,-0.8099375,47.99891,-0.79547596,3.3155953e-07,1.0744814,-4.435741e-17,1.0344185,-1.3767388e-36,1.1832391,7.401421e-30,0.9649487,2.2207163e-36,1.1563519,-0.0008289398,1.0091556
-5.159244e-27,0.929554,-832006.8,0.8522594,7536718400000000.0,0.98093206,4.0975116e-24,0.80513024,-1.376912e-39,0.91357577,9.343701e+37,-1.0590189,0.5849259,-0.97087276,-1.31517e-25,-1.1382111,-9.570788e+19,0.9573854,-139988860000000.0,-1.1250124,5.4467205e-28,-1.0997288,-4.6760253e+22,0.95721173,-2.063526e-22,1.1585397,3.2895548e-12,1.082524,4.4354415e-08,0.88245386,4.8371553e-23,1.1729828
4.541983e+26,0.9057309,4.6530025e-36,-1.1017905,-11.130351,-0.74887764,6.819446e-12,-0.94489586,4728085300000.0,0.9424413,-2.8595613e-18,-1.0735011,-8.4446286e-35,1.0861235,-1.1558046e-21,1.1668837,-8.12006e-27,-0.919705,1.355664e+35,1.192928,-8.678231e-11,0.9699432,-4.6401936e-35,1.0691931,1.6948583e+25,-1.0469745,2470797.0,1.0897332,-4.1808107e-06,-0.909007,-5.9460906e-19,1.1912507
-1.1366679e-32,-1.1073953,-1076755300.0,0.8871106,-0.45414943,-0.9364478,-3.6234563e-34,-0.9551583,2.375128e-27,-0.96933526,86425790000.0,0.9753399,-1.9457526e-13,-0.86426646,-7.553374e-14,1.0356022,7538.191,-0.8479279,-8.2677345e-33,-0.7484413,-8.551279e-25,0.84696424,-888807750000.0,-1.0885191,6.5293836e+22,0.8529757,6.9855754e-23,1.0383208,-7.233873e+27,0.799806,1261142400000.0,-1.002395
-0.08871025,-0.9536206,5.1089075e-09,-1.0270637,-3.3353945e-12,-0.9042012,2.1032757e+17,1.0629892,6.9840514e-12,0.99181354,2.347529e-14,0.9507479,-5.735575e-13,0.98041654,9.04699e-19,0.8769859,7.57114e-06,-0.840125,-7.766668e-13,-1.0479299,-5.741379e-13,0.6260957,-2.2058427e-36,-0.8338896,-1.7169888e+35,1.1934294,1.7839682e-36,1.0461869,-1.053534e+31,-0.9927364,-1.7467418e-36,1.170678
-3.0625634e+19,0.6946728,1775341.6,0.9303054,1.8734653e-26,0.9390144,1.7881988e-35,1.1407522,2.2282337e+24,-0.9928355,-0.009475863,-0.9327805,5.947948e-38,1.1381027,4.060815e-33,1.0635254,2.5050642e+26,-1.0191948,9.63627e-20,-0.8384202,-8.9536484e+24,-0.8573235,6.3422577e+32,0.90994585,-1.5905985e+28,-0.9992316,4.808163e-24,0.9912245,6.3393013e-10,1.0464271,3.2652901e-24,-1.0815704
3.8220594e-29,-0.78645843,-60077.27,-0.95831776,1.883897e-33,-1.1850199,2.0986355e+26,1.0547415,4558831000000.0,-1.0062779,-1.7981067e+32,-1.1382474,-5.171444e-33,0.8616535,-1.4654863e-07,-0.71643734,-1.54377845e-27,-1.1195073,-7.9040273e+34,-0.9226467,-3.251114e-07,1.0592993,-1.4622907e+17,0.9435179,1.389684e+31,-0.8985941,-1.6088669e-24,0.8601363,-17269532.0,0.9493224,-2.5730236e+31,-0.9452926
7367854.5,0.48983553,-105469700.0,-1.1439645,42271.152,1.1227345,-3410606.2,1.0200095,1.2048484e-30,1.0881448,4.811485e-07,-0.9035279,-36.970444,0.684297,1.7725199e+34,1.0605357,-1.171858e+36,-1.0528375,-84.28093,1.0875782,1.30855e-26,-0.9921408,8.7736804e-14,-0.94551253,161641.81,1.2354536,0.23759201,-0.94856364,-4.068621e+24,-1.1354151,-6.512541e-14,-1.0050867
-1.9244505e-22,1.0306387,-4.1810063e-31,-1.0629528,-1.858596e-22,-0.8450875,-0.0044260677,-1.0773689,1.5286428e+28,0.9609988,7.384734e-23,-1.094501,-1.1107138e+38,0.977892,3.4440476e+20,-1.1996894,-1.2358646e+34,0.962653,5.8870663e-34,-1.105565,-803.66693,0.9995356,4.2495975e+32,-0.97037727,-330646270.0,-1.0442733,-4.138292e-29,-1.0887053,-7.863367e-30,-1.133096,-2.0520473e-37,0.8340331
-4.6063943e+19,0.7989581,-2.2252767e-07,1.2212665,1.5333131e+26,0.9928853,-4.3577998e+26,1.1305628,-1.488519e-11,-0.86314,-6.6512263e-13,0.9350572,-1.381681e-26,-0.9242079,2.9370124e-16,-0.9070325,6.8476655e-09,1.1542488,-2.5367783e+25,0.75226593,-1.446779e+20,1.1715064,1.04861924e-35,-0.82191944,9.370302e-15,-1.1747524,-4.067677e+24,1.0111978,-5.205174e-08,-1.0479805,-194837350000000.0,-0.84251875
-1.4941498e-05,-1.0235606,-0.038718853,1.1046836,1.6140845e+21,-1.0497705,-1.7606043e+20,-0.86215883,-2.2486652e-30,1.0364579,5.898865e+22,0.82312244,-1.3769367e-14,0.87127966,-7.492879e-25,0.9458031,2.25351e-25,-0.7166161,9.3816366e-36,-1.1304946,-0.242918,-1.1492037,0.10632343,-1.0230931,-3.8302148e+31,-1.0352648,-31.725552,-0.91276485,-3.3826782e+16,0.9893237,8.282872e-34,-0.96893543
4235115600000.0,-1.0925893,4.63111e-08,-1.1037325,-815.50977,-1.1439339,3.8078915e-23,-1.1302302,8.743633e+34,0.9843763,-3.754454e-27,-0.9636589,1.0205728e+20,0.9508525,-9.190472e-11,0.62507623,-3.563591e-17,-1.104181,-1487898.1,1.1104243,-5.445461e-38,-1.1510133,134012530000000.0,-0.9166927,3.7741143e+31,1.0864599,-41845068000.0,-0.9857302,866207550.0,1.075038,1.995422e-35,0.83170736
-1.6844777e+22,-0.88947403,-1.0738191e-16,-1.0183077,-3.9753125e-34,1.2093494,8.8600367e-29,-1.0182613,-4.7830855e-17,0.7652368,7.5921065e-36,-0.94652843,1.8650339e+30,-0.80046684,2.7738972e+17,-1.1396482,1708183.1,-0.8006895,-5.579268e+30,1.0984057,1.6973938e+36,0.9816636,-0.019683078,1.1266836,-0.0603286,1.1915367,-29033275000.0,-0.8692136,1.2959858e+24,1.1904898,1.9571058e+32,0.9442584
-9.808839e-11,1.1775656,2.9918923e-35,-1.0589709,-7.8580583e+36,0.8967966,-0.00039506404,1.0946245,8.155142e-05,1.0233898,2.2035168e-10,0.98599356,2.6512903e+25,0.9761221,-1.4001919e+31,-0.9400843,-6.1304725e+30,-0.9965507,-9.07436e-36,0.94167817,-5.070129e-05,1.1673535,2.4202033e-27,0.9401835,0.02786807,0.9460835,33433.61,0.98513854,-4.1805567e-23,-0.9681061,7.330121e-31,1.122918
-1.5692912e-22,0.8393525,-1.8304943e+37,1.0680509,-1.8152308e-11,-0.88797295,7.566792e-26,-1.0440257,-1.1310702e+17,-0.8483841,1.3328049e-32,1.0110748,-1.4568281e+29,0.9707911,9.811323e+28,-1.0475717,-68389242000000.0,-0.9315127,-3.165857e-31,0.96486,-2.5278035e-10,-0.9131186,2.2920151e+21,1.1546699,-1.1913545e+19,1.0765567,1.3911423e+17,0.79541785,-2335.9785,0.9600129,0.00020659536,-0.9427484
164038540.0,-0.5935748,-759026560.0,-0.9303157,-9.199822e-18,0.989021,1.3727658e-05,-0.8924921,2.5208708e+34,1.1628498,-3.1718013e-34,-1.0535237,3.7152583e-21,0.90798485,-3.7741682e+36,-1.127507,6.3998845e+27,-0.94226205,-6.893093e-16,0.8406867,-191583.77,0.89273655,-3.4180638e-35,0.92023176,1.0059158e-30,0.8387988,-82899.336,0.5982169,1.8008166e+24,-1.0275068,-57176625000.0,1.0194751
-11.203314,-0.94326764,2.4181896e-26,-0.9202959,207360060000000.0,-1.1839669,9.584864e+32,-0.9826835,-2174631500000000.0,-0.9044684,-9.679771e+16,-0.9381137,1.0205711e+36,1.0122354,-5.1767324e-37,1.0987562,-1.8464515e+38,-0.9036573,-3.921348e-20,-1.1637167,2.3113526e+32,-0.9467694,3.6053866e+20,-0.9916753,-2149140700000.0,-0.99504536,-9374456000000.0,0.96002597,8.254632e+33,0.8747096,1.12880456e-14,-1.1455585
1.8253085e-37,-0.959453,-2.0949743e+22,0.95545834,244732.25,0.9201746,7.40203e-33,-1.0580168,3.323006e-33,-0.978055,-2.1301085e-08,1.1435832,4.3709562e-38,-0.89548564,-4.276514e-15,0.76740396,-0.001284862,-1.1648233,-8.629738e+17,-0.9739768,2.0062937e+27,-0.9663287,2.8761845e+35,-1.0099225,-1.5133901e+28,1.1381431,-1.2569968e-20,0.99108344,580485800000.0,-1.0975935,-7.270165e-13,-0.898458
4.3119295e-25,-0.96744996,1.3006635e-17,1.1721276,-1.1269438e+31,-1.0171778,-4.530626e-27,-0.9540839,993340.56,0.8807647,-3.1026002e+21,1.0595163,-7.735661e+36,0.96510434,2.6179926e-12,-1.034829,-1.9387649e-13,-1.1386052,-1907508100.0,1.1235423,-1.6101967e+31,-1.1545641,-3.3724725e+34,1.0289348,-4.4140852e-33,-1.0707048,1.447655e-08,0.96195877,-118.36129,-1.2175119,3.333654e-07,1.0416838
-4.184522e+22,-1.1368105,-1.486022e-37,0.97281253,-1.3532579e-13,-1.1175799,6.654575e-29,-1.1824229,7.7675434e+34,-1.002822,6.254509e-31,1.1775434,17934658.0,-0.95032495,6.8258414e-35,1.0980963,-29662286000.0,0.92429084,-1.3179213e-14,-0.96243024,1048672500.0,1.0269331,-29724880000.0,0.8478219,-1.3649612e-10,1.1255344,1.2877398e-16,0.9362279,3695126300.0,-0.9235237,-7.4335415e+33,-1.1463726
5253225500000000.0,1.0965271,8.635032e+31,-1.2549915,-15739300000000.0,0.92509663,-0.004178844,-0.95606005,167346370.0,-1.1655667,-4.508886,-0.9427712,-3.810949e-06,-0.9946533,-7.218847e+29,-0.9688076,1.0551365e+20,-0.99024284,-2.7379063e+26,-1.2526742,-5.8302347e+19,1.130186,3.8632853e+33,1.0392411,7.601717e-31,0.9802443,-2.1189614e+24,0.9466782,0.0032084326,-0.7465901,-1.8654944e+24,-0.800581
0.05006995,-1.1116225,-4.5160408e-07,1.063682,67761238000000.0,-1.0529588,59440290.0,1.0765321,7.008034e-39,-1.0941349,6.9145734e-10,-1.161697,1.6063275e+37,-1.0414199,-1.6305994e+27,-1.032829,-2.3432244e-35,1.0032269,0.19883801,0.8254437,2.63756e-19,0.96029925,6.20134e-11,-0.9416449,6.866793e+36,-0.93479925,14461929000.0,-0.9721921,2.6870027e-17,0.67617023,-1.3048415e-18,-1.1574104
2.751306e+33,0.9331484,2.1493787e-15,-0.99802166,-2.5970053e-07,0.68757206,-1.1660904e-36,-1.0541669,2.7756011e-21,1.0111378,-5.111466e-14,1.0352997,-6.456311e+25,0.96176916,6.9369446e+35,-1.0524213,-4.0676858e-26,1.2050178,-4.3953976e-23,-1.2250476,3477197.0,1.1612121,-2.4251082e-33,1.1247814,-4.2541736e+37,-1.0461351,-2.1799982e-29,0.8446557,5.862876e-12,0.9488977,5.1342933e-25,-0.95006835
9.6227985e+25,-1.0295027,-1.1554686e+34,1.064746,-11.030432,0.7110965,-2.5966617e+27,0.98984075,-3.8503575,-0.94112563,1.3110373e-30,-1.1814449,-1.3823592e+35,1.0315591,1.0169062e-18,1.1357998,-1661.246,0.8540026,0.00039163142,0.97396433,-1.5069373e-38,-0.90682065,-15293303.0,-0.7909457,5.081981e-39,0.90845275,8709577.0,1.1630658,2435.517,-0.94324356,-8.831501e-09,0.9164331
-3.3148128e-25,-0.9276512,4.9834743e-37,1.0785532,7.0837905e-07,0.972963,-7.627595e+24,-1.1947138,2.2010157e-15,0.99880344,2.6496467e-27,0.9614062,1.3386794e-35,-0.9398108,2.5925987e-27,1.0941858,1.3346093e-15,-0.8873936,3.681525e-26,-0.94175273,6889319000.0,-1.058735,1.4671676e+22,1.0198842,-0.0046668737,0.9505638,8.861401e-06,1.0554702,-2.7067512e-07,0.96122754,-2.0404548e+30,-1.0729396
5.2506806e-23,-0.8794554,-1.4495959e-29,1.1183934,-2.67282e-31,-1.0044346,-1.4204946e-08,0.7448748,1.1588106e-31,1.0593419,-1.36362935e+17,1.1021149,-2.7061894e+37,0.6975295,-6.886206e-22,-1.0593985,-1.9294306e-31,-0.8751442,-3.9203196e-30,1.1360977,3.4585388e-05,-0.84049445,2.1666629e-16,0.9491323,4.810471e-27,0.8605206,1.3891139e-16,0.9688339,-1.3531966e-17,1.1973517,4.7059087e-37,1.133802
4.650956e+25,-1.1497381,2.1205528e-24,-1.2011706,-7.9433236e-16,-0.9501549,4.758428e-23,-1.1416781,-1527923100000.0,0.797379,415208450000000.0,1.0300694,1.4604065e-15,-1.0102648,-5.3103884e+34,-1.0328466,1.2086465e+25,0.9368185,-5.22342e+19,0.95892483,-7.607221e-20,-1.1933552,7.521469e+20,1.1360313,-1.3734085e-33,1.0868223,-2.4181927e+32,-1.126156,9.260231e-25,1.159295,-1158.6001,1.133721
2.1150018e-16,1.0208346,3269855000000000.0,1.0926192,-27.287777,0.99283963,2046378900000.0,1.1162267,1.731494e+22,0.90710294,-2.673717e-12,-0.98263174,8.124503e-19,-0.86730075,1.9055932e-23,0.75638145,4.034586e+30,-0.9201903,-1.1442987e+24,-0.8103173,-2.6386766e-24,-1.1460438,-2.529736e+31,0.9383463,-2.724685e+28,-0.9091058,-1.6814909e-28,-1.0085517,7.5665713e+34,0.9802595,-6.2700745e-30,-1.1716267
-3.3095156e+26,-0.47611165,-4.4248882e+21,-1.0024645,1.7948502e-33,-1.0784605,1.7498337e+19,-0.95578545,-4.550911e-14,1.1267225,6.044434e-36,-0.90003884,8.537256e+16,-1.2121063,-9.306876e-11,-1.1295495,-2.6949753e-31,-0.83390576,-1.6650576e-35,1.0729138,-1.1292908e-06,1.0358002,-17.15727,0.6992805,9.4374644e+24,-1.1916066,-70322940000000.0,-0.94097006,1.3307636e-15,0.9542053,3.6787355e-25,-0.98471457
-1.3190435e-14,0.7822943,1.5103937e-14,0.95110726,2.0919651e+21,1.0845968,-0.0022209059,1.0889215,1.7137816e+31,0.94829744,-15321.417,-1.144392,-1.3872166e-32,-0.94698155,6.1752133e+35,1.0280993,-21525613000000.0,-0.9720602,-4.1550584e+19,1.1516944,-2.7159717e-06,1.2206415,38.92654,0.89680976,3.1276105e+23,-0.9607742,4861129000000.0,-1.0608865,6.266335e-19,1.1203486,-0.0076080984,0.9630706
2.6514262e+34,-1.0863403,5.381412e-28,1.1214608,3.266128e-21,0.9830027,-3.9101273e+25,0.92524606,3.6347848e+24,-1.0547903,-1.0300522e+16,-0.9768299,-7.018522,-1.1254054,8.292527e+30,-0.9543921,1.00695093e-25,0.9179148,-230291.31,-0.8259256,3.063271e+32,-1.0776886,8.5985685e+36,-1.2053558,-2.1815097e-27,0.8585123,2.0444548e-07,-0.94105005,7.6673605e-14,-1.0838982,5.2881584e+26,1.0094397
-1.4997306e-23,-0.9704754,40908360.0,1.0575559,,1.0203574,0.75239414,-1.0832143,6.1094205e-37,-1.0546182,7.193451e-23,-1.0951295,-9393084000000.0,0.84404534,-1.8338977e+25,-0.9564159,4.268104e+21,-0.9427941,4.137632,-1.1753623,3.056029e+21,0.68767786,1.7800794e+22,-1.0035595,-1194.2089,-1.0018959,-1.0369014e+17,-0.9631423,-143450290.0,1.149445,1971.134,0.9996585
1.9051013e-29,-1.1335791,-1.095867e-31,1.0638548,1.3568173e-17,-1.0953039,3.2041499e-34,0.8281731,-3.0286474e+32,0.93539894,9.3204336e+17,0.88034165,-3.47553e+22,1.0322146,0.18271282,-1.0153091,-4.6294333e-27,-1.0494862,-1.881553e-15,0.84459376,0.037624326,-1.0668287,-3.6028734e-20,-1.0023916,-6.944306e+18,0.95224726,-4.9052413e-26,1.0174755,-6.4661396e-19,0.9515959,-1.7960823e+36,-0.913223
5.7987697e-13,-0.51179343,-9.592579e+37,0.93583214,-5.402305e+26,1.0761714,-111566790.0,-1.0933459,1.0549614e-36,-1.0696665,-1.7094239e+25,1.0089564,-130894.95,-0.9144415,4550882.5,1.140175,-1.6400732,-0.8318749,-1.1795835e-11,-1.0914718,6.861695e-08,0.9720177,3.7531048e-16,1.0262318,1.595075e-05,1.164838,-1.0203911e-33,1.1365085,-4.3121213e+24,0.825155,1.5757298,1.2107788
-3.956513e-09,0.96368533,-1.5576327e+27,0.75090796,-0.5528562,-1.1044469,-1.02868735e-17,0.9324812,8.631681e-36,0.9868931,-3.2478493e+30,-0.9644693,-4.0687173e-33,1.0029129,7.88974e-40,1.00093,-4.4396014e+36,-1.1993735,-6.57085e+30,-1.044971,9.222484e+32,0.9944117,-1.2333641e-17,-1.0419137,1.0597985e-14,-0.6789067,-8213550.5,-0.93854773,-3.5439503e+19,0.9877259,7.087519e+23,-0.83521664
-2.474897e-08,0.87207896,85.77156,1.0524657,-4.0700474,0.5348457,4.892794e+26,0.9265223,-7285596500000000.0,1.1514901,3.437627e-09,-1.0266826,1.8609395e+31,0.5466488,-1.3854345e-15,1.0052816,-1.5035552e-09,1.1405259,1.3008446e-06,1.15401,-3.4979814e+24,-1.1204255,-1.0805035e+21,0.886451,1.2985705e-33,-0.9717928,-4.0773813e+30,-0.85684913,-385699600.0,0.91502076,-1.5842414e-19,0.892294
-5.987098e-30,0.9206733,1.4883538e-36,1.0266541,3.0767632e+28,1.1160245,1.6716126e-13,0.99497086,1.8529971e-29,0.51927024,2.48355e-18,-0.99867505,-3.1777362e+18,-0.9487702,1.8446352e+22,0.93810016,1.2405002e-25,-0.9306674,0.52712256,-0.9922943,1.1572171e+25,-1.1764581,3.079602e+30,1.0546032,-7.168125e-28,-1.1393124,-9.021111e-36,-0.99856627,-72873775000000.0,0.9450864,-1.4017235e+23,-0.91788405
2.288621e+17,1.0076703,-1.9716062e+18,1.0289063,2.7285822e+26,0.98813,2.322913e+19,0.486986,-2.9957933e+37,0.976696,4.6753027e-22,1.1609082,3.4359045e-38,-0.7375489,-5.991941e+19,0.96323806,-6.852457e-10,1.0343022,-1.3932044e+28,-0.9437998,1.5284673e-30,-1.0173652,9.9987786e+36,1.0153027,8.9591195e+26,-0.9026263,1.0863821e-20,-0.93296427,-4.3920413e-25,0.6681091,-2.0965312e+20,-0.74666566
7.017464e+36,0.96253616,-1.5115822e-34,0.95807284,1.1312278e-05,0.815433,-1.2592788e+38,1.1257502,10577.889,0.764576,4.5919288e+30,-1.0050831,-0.39946625,1.2591239,1.8612554e-09,-0.94433856,-0.0037388941,1.0835695,-9.048964e-37,1.1197666,-7.8742985e-09,-0.95536023,-33890980000.0,-0.9402244,7.2889975e+23,-0.8709953,-0.1392035,-0.7687114,0.061050743,1.1523441,3511976000.0,-1.0619726
-5437.3843,0.9162908,-7.087824e+19,0.6308444,-35340857000.0,-0.9581133,1.541484e+26,-0.9972032,19113.762,0.974869,-9.544756e-35,1.1080097,4.0406445e+21,0.9902625,1.2341544e-27,-0.87640303,1.0664052e-33,0.9672819,2.3515992e-30,-1.1452559,0.0019710038,-1.1901913,1.7636945e+17,0.5690045,5.9498066e-06,-0.9826229,1.10231095e+30,-0.9496367,3.3485175e+30,1.101757,9483.136,-1.2282447
1504079400.0,1.2160282,2.1125021e+33,0.9900442,2.8159527e-29,-1.0154716,-5.1488697e+17,-1.0232221,17734334.0,0.82461256,-1.0616508e-16,1.1136378,2.6142237e-35,-1.0548942,3.0147158e+28,1.0893478,9.5992045e+19,-1.1845074,3.5057368e-38,0.9389193,-5.3791715e+24,-0.94062465,-0.12482914,-0.97989947,-3610717.0,-1.1466571,-1.5251594e+22,0.74950135,2.1057751e-11,-0.9219648,4.187017e+21,-0.99685526
5.5370367e+29,0.9729089,1735163900000.0,-0.7564987,3.1967885e-15,-0.7092739,8.716886e-39,1.1438842,93139690000000.0,-1.2134933,2.4652027e+17,-1.0058656,906581.56,-0.8336136,1.954162e-06,1.1670208,41.827614,-0.9937185,-4.5372922e-14,0.91764045,208778430000000.0,-0.9569803,2.5167012e+28,-1.1144638,5.225357e-10,-0.9381992,-9.693742e-14,0.93453735,5.053692e+21,-0.99767596,185.29968,1.1756381
-1.100692e-33,1.0208427,6300232000000.0,-0.9845745,3.6263877e+31,-0.94860214,1.4512922e-09,1.0609957,2.8306452e-31,-0.9806158,-1.9441577e-12,1.0688479,-8.440939e+33,-0.8461001,-2.9296981e-28,-1.120109,-2.451581e-10,-1.1314801,-388.2398,1.1400324,8.6872494e-35,1.0505396,1.6781696e-21,-1.0596443,3.859968e-28,0.9436242,1.7603486e-07,1.1756488,1.2088918e-36,-0.8723259,8.3575604e-26,1.2297506
5.7295585e+29,-0.89675957,-22883764000000.0,1.0625241,-1.7891222e-17,-0.8557785,3.5524256e+35,-1.0544037,-8.734173e-34,-0.8313257,9.034554e+28,-0.8128702,1540500.2,0.7987878,-4.3938905e-16,-0.95855904,5.954607e+21,0.7597502,-3.749072e-33,1.0754931,-3.0990833e+35,-0.93007976,0.45090386,0.82578385,4.3032618e-28,-0.91702306,-3.1103778e-22,0.9038061,-3.6137656e+35,1.180539,-3.245716e-11,0.9689771
2.820297e-30,-1.1509774,0.00082650577,0.9821913,-4.0466547e-36,0.99398595,-5.447294e+25,0.9374428,1242915800.0,0.8239591,1.0047916e+26,-0.9569592,8.691458e+30,-0.8645856,-4217050400.0,0.9681082,-9.442927e+37,-1.1616168,-1.9242611e-19,-1.3300166,2.6661667e-18,-1.1850466,-1.4287872e-06,1.0167271,-2125.4243,-1.0180407,-1.0636778e-29,-1.0614419,-312.21103,-0.9857431,-908583400.0,0.9762925
3.085549e-07,1.0394106,2.4575824e-28,1.164884,1.6153139e+16,1.1439719,2.5751201e-15,0.92205894,1.4190386e+30,-1.0440366,2.8169585e+20,-0.8215664,5.40564e-06,1.1201394,-1.675635e-31,1.1053491,1.11687965e-29,-1.0429622,2043873800.0,-0.88367337,1.8679777e+27,1.0039874,-1.2910786e-17,0.8815549,1.09153584e+18,-0.9330315,8.558717e+23,0.9504783,-1.6424522e+22,-1.1919205,-4.6672084e+20,1.1029644
9.827409e-32,1.0339239,-2.326498e-18,-0.9719006,-1.9364927e-07,-0.912507,-0.00435336,-1.0654429,-5.8406715e+16,1.008536,1.6143738e+32,-0.82876104,-2.9308684e+35,1.0342034,1.3017467e-36,-1.0939045,-2.406303e-31,-1.1429324,7351469.5,-1.0449785,5.200656e+18,0.9054622,2.1922655e-13,-1.0945355,-1.4496917e-36,-0.99847597,7.9618367e+24,-1.0117683,-30791.016,0.9839827,-4.2539322e-21,1.081388
1.2070736e-21,-0.9787058,0.00030798043,-1.1345413,-22.519655,-1.0312852,-2.6816807e-14,0.9939587,296798.06,1.1018814,1.5818662e+16,-1.1495448,-1.9593608e-25,0.88755924,-6.217671e-17,-0.9521163,-0.012000983,1.185546,1.1484028e-15,-0.93549347,-5.3429937e-29,1.0021495,1.8742627e-31,0.5663075,-262936690000.0,-1.0310422,3.0491544e+38,1.1321955,-8.839062e-09,-0.97124755,1084459100.0,1.0477245
1.8569767e+25,-1.1230013,-2.5081108e+32,1.1044098,432152.7,-1.0115623,-3.4287105e-28,1.0991516,4.2494344e-22,-0.9856257,4.3115696e-36,-1.0915143,-8.118383e+24,1.1458281,-3.0918383e-28,-0.8798178,-1.4305756e-23,-1.015656,-696991.1,0.9595726,3.5507412e-26,1.230954,199390580000.0,0.9731302,-1.1744643e-22,-1.1753498,2.193653e-08,-0.9692527,-1.2898439e-16,1.1496564,-4.2563885e+36,-1.1406848
4.7875768e-21,-1.1981088,-4.0019653e-31,0.765852,-4852956600000000.0,0.94698364,-5.2855234e+35,1.0552138,2.682439e-23,-0.94886917,2.569374e-05,-0.96278846,-6.6413915e-05,-0.8858572,-2.9419259e-22,0.90722007,-5.4902923e+24,1.189308,3058311000000.0,-1.1808795,4.4770038e+27,-1.0034915,3.7936562e-32,0.8802061,-3.6551636e-26,-1.0057974,5.6836605e-11,-1.0597625,1.1754134e-14,0.8250878,5.8715138e-30,-0.96730846
6.601242e-35,-0.9439845,1.8317865e-10,-1.0465462,5050834000000.0,1.1491631,0.0007808147,-0.932564,226171310.0,-0.9848885,7.793202e+32,-1.1501684,-2.1257615e-30,1.2020254,-6.097749e-31,0.914432,-3.8750766e+30,-1.1277738,-9.707377e-14,-0.9879787,-75247.68,-0.92182606,2.8414975e+21,0.9722215,123604.164,0.9341514,3413238500.0,-1.1390322,-1.11233175e-30,0.7516746,-1.6001228e-11,-1.0749844
2.2719705e+27,0.96958005,-2.2438155e+33,-0.95444316,4.482972e-06,0.9917654,2.1915027e-06,-0.9942112,1.960048e-33,-1.144689,-2.0180865e+30,0.9714965,5.5863657e-15,-0.98549235,-1786199300000000.0,0.84671146,1.70521e-15,1.0881698,1.4641572e-36,1.0149639,85.31389,-1.1427872,3.0849624e-15,-0.990719,5.1306585e-12,-1.1459198,870203.9,-0.9430749,5.1123224e+23,0.9540561,1.4784758e+18,-0.9865421
0.7234167,0.5842139,-2.6607378e+38,-1.0981797,-9.486305e-32,-1.1082712,-2.8704802e+16,0.96049166,7.4063876e-38,-1.0327921,6.378911e-39,-1.1372988,-7.076165e-39,-1.1328644,-2.7459564e-31,1.0715169,-2.4832928e+23,-0.98833835,-232039900.0,0.9389259,-4358022600000.0,1.0579442,-1.8719385e-31,0.99550724,22195.537,-1.1448133,-476.08395,1.0433495,1.0636396e-10,-1.1058015,8.6152764e+27,-0.95810676
-1.0451002e-11,0.9645226,2.4654004e-22,-1.0038389,53199995000.0,1.0425849,1.379716e-14,0.9957146,0.0014919589,-0.95688075,-8.017243e-35,1.0890285,8.6390756e-11,-0.84751934,5.920933e+19,0.99232835,6.6751915e+37,1.0678939,-894116.06,-1.1109128,8.744317e-35,-0.9510022,1.1908693e+37,0.9793971,-1.8757248,-1.0967983,2.1499572,-1.054542,-1.07985044e+18,0.9479206,-4.2901757e-33,1.0601891
-1.5785928e+28,0.87147915,1.3478143e+29,-0.9610854,-881893550000000.0,0.97086304,1.0669894e-21,1.0419246,3.4827777e-20,-1.0392308,-1537353700.0,0.9889171,-1.0436093e-29,1.0031422,-8.550204e+21,0.7985245,-1043954240.0,1.1375359,5.744684e+33,1.1736441,-4.8091327e+36,-1.0798635,,1.0807325,-4.0506016e-30,-1.1770556,-2.660012e-15,1.1368531,3.3150075e+37,0.5652665,9.697673e+34,-0.95852417
-545727680000.0,0.8169407,42.02661,-0.8181138,882.66675,1.2027377,2.1772497e-07,-1.1731318,8.3975685e-08,-1.0507519,-2.112311e-31,1.0294677,7.200918e-36,-1.0197047,0.19901496,-0.96826106,204948100000000.0,-0.63208365,9.530142e-26,-0.8300801,-4213.8887,0.7745346,3.580507e+17,-0.9518833,-5.65053,1.1658982,3.977706e-37,1.184807,1.2271589e+36,-1.0098774,-4.0425586e+23,1.2577392
-1.8877631e-10,0.9042522,-6.8231548e-06,0.8962051,8.487319e-38,-0.9604851,2.1071957e-12,1.2240156,-254.06215,0.9684028,7.936177e+22,-1.0148904,1.1336159e-07,0.9423508,1724413200000.0,0.8531933,-7.8413395e+31,-1.0456781,-3385967000000.0,-1.0659593,-1.6060147e-07,-0.87884945,-1.0619394e-26,0.9960457,1.028635e+23,0.9450577,-2.1352804e-17,-0.97539735,-1.602035e+38,0.5698906,-692224.94,1.0029538
1.5558249e-34,-0.89328116,-1.6903039e+34,-1.0125599,1.038477e-14,-0.9872875,2.7944692e-05,0.9570958,4.5206943e+33,1.1296343,5.3717057e-24,-1.150612,0.00030026172,-1.1350912,22.305565,1.0985647,-1.7330906e-27,-0.96496516,5.851224e+31,1.1425579,-6.587255e-33,0.79510343,-4.70103e-10,0.89082026,-0.012318014,-0.8483881,8.72362e-39,-1.0221815,-6.230234e-17,-0.99429,26.446873,0.74731314
-6.7041996e-35,1.0216348,6.519135e-36,0.7938171,,-0.9739094,0.043736193,-0.99821794,3.7457926,0.9504411,3.6923612e+31,-0.9585273,-4.1322907e-26,0.941611,3328906200.0,-0.9372565,-46243.64,-1.0413294,-0.0021514338,0.9580294,-1.1409719e+23,0.788128,-8.1609926e-27,-0.84794885,-1.3365957e-30,-1.1815618,-4.345313e-26,1.0253264,4.8513304e-13,0.9878922,-1.4547512e+30,-1.0170056
1.3530928e-24,-1.0136502,-50.81528,1.0948123,-8.3070156e-38,0.7349246,-7.9874457e-07,-1.061314,1.2917062e+22,0.8893753,-2.4242952e+20,-1.1536821,-2235811000000.0,-0.89610004,-1.597057e-28,1.1262546,1168605000000000.0,-0.85380876,-1.0904298e+36,1.1766613,0.45886308,-1.1357284,5.29348e+36,-0.98137325,1.4120244e-20,1.1190513,-5.16668e-34,-1.0169452,1.941142e+33,1.2557596,223205780.0,-1.0112919
-7.972365e-06,-0.8107603,-7.612336e+31,1.0762773,-5.3796406,-1.0331337,1.1686546e+26,-1.0643345,0.44301865,0.84375215,-1.5072489e-30,1.018187,4.1527478e-13,1.0078125,0.0014989491,1.0156895,1.4556953e-29,-0.82134897,-4.8431625e-32,1.1826813,-4.852555e+30,-1.1578168,1.0895188e+18,-0.96273285,-6.7223516e+22,-0.93472576,7846615.5,-1.0905628,8.1455614e-26,0.95727354,2.4146735e-35,1.1889173
-1.06233926e+30,0.95632374,6.9670834e-34,1.0540849,-6.9141086e-38,-1.1006253,-2.188951e+17,-1.1433053,-1.30803925e-36,1.1290233,-26418323000.0,0.9749855,-22713883000.0,0.91691965,-5377.8794,0.7679799,-2.9541795e-14,1.1310499,-5.6454825,0.90929556,1.443773e+28,-1.1939721,5.4218784e+28,1.0528446,8.033394e-17,1.1019961,-0.00090092904,0.85367465,1.4790669e-34,1.0378131,-8.525693e-22,0.8133152
-2.937473e+26,-0.8161553,1.563612e-30,1.0829566,-2.8697266e+20,0.9485016,-0.0042117913,1.0426085,4.271309e-26,0.94488627,4.4042425e-22,1.0903621,2432543200000.0,-1.124541,-84811960.0,0.8767541,-3.1442263e-25,0.87373614,-1.3550493e-06,1.1278415,0.0056543956,0.9329994,-1.435936e+20,0.77602893,2.2566033e+36,0.684263,-1.6175931e-34,1.0033256,-1.692611e+17,0.7393586,-54812.617,-0.9644788
3.2448737e-15,1.0832858,1.4786783e+16,-0.9612694,3.1714142e-06,0.9560703,31175446000000.0,0.8377306,-1241.9434,-1.1617317,-0.0032676707,1.133565,-847960.6,-0.75062144,11666181000000.0,1.0529332,-1.0149496e-31,1.115642,-2.092456e+24,-0.9921109,847606.06,-1.0981646,-28434.234,-0.8776274,3.8179917,0.98347354,0.00037379484,-1.1992673,43.39514,-0.95177966,-1.0677188e+28,1.1827195
-1.1585176e+32,-0.872098,-7824.5044,1.0232552,2.0695057e-16,-1.0014577,-1.1401344e-18,1.1625917,2.2053927e+34,1.013529,4.5908037e-14,-1.0871308,5.092895e-14,1.108231,-8.235927e-38,-1.120235,-4.8834873e+35,-0.96742475,-6.71529e+17,-1.1595905,1.425577e+24,1.1954306,3.819007e+17,1.1332045,3.6237157e-34,0.99464214,-1.9533722e-31,-1.0231951,8.3801804e-20,-1.0023265,-1733371800000000.0,0.8772802
-1.5733995e+29,-1.1033034,6.2724735e-17,1.0163215,-519366000.0,0.88959354,-2.1037915e+19,-0.92025566,7146629500000.0,0.71991754,-1.4935617e-21,-0.7006512,-1.2479214e-25,1.0845332,2.7616764e+29,-0.8985363,2.4152187e+24,1.0169795,-1.480957e+24,-0.96316355,-5.1298943e+23,0.993817,6.206341e+17,1.1963509,4.4405567e+26,-1.2337028,-3.985465e+30,1.0762905,-864.1518,1.030307,1.5491376e-18,-1.0102394
-1.273682e+38,1.0456299,-1.1461262e+17,1.0570053,4.7728688e-23,-0.91641325,-3995824000000.0,1.0471983,1.0956689e+25,0.9671513,1.8816093e+34,1.1185958,-3.2432623e-11,-0.94685316,0.007766229,-0.9565799,-6.823635e-07,1.1287256,65551356000.0,0.73273927,2.1109797e+25,0.8129099,3.0401276e-07,-1.0387074,-1.2383423e-25,-1.1612808,21682830000.0,-0.9027825,-4.749963e-14,1.0211791,2206212.5,-0.65347135
1.7439796e-15,-0.97158235,4.792693e-37,0.9856428,2.8940287e+18,1.0024136,27017798000.0,1.0908602,7.372262e+23,0.9964203,-7.936436e-29,1.00002,-9.5600366e+27,-1.1193962,-1.6394443e+35,-1.0319474,6.878878e+33,-0.8846893,1.7814396e+18,-1.0845033,-4.4442463e+34,1.1540829,1.6306934e-19,-0.66142285,29536980.0,-1.1598134,-6.322871e-30,1.017201,-14.39726,0.9387885,-2.800964e-15,0.93694586
5.4804697e+26,-1.038629,1.9499359e+18,-0.9077188,-1.4340512e-09,-0.818033,-2.1709451e+21,1.1693838,1.3920095e-34,1.0039976,2.5722355e+36,-1.0971048,9325.772,-0.9548745,-0.19446892,-0.9743619,1.571754e-14,-1.0303559,-0.0013576329,0.9730626,-4.10606e+35,-0.9796674,2.637524e+16,-1.1440374,5.1579114e-08,1.093526,-0.34192917,-1.1377391,,-1.0696361,69638324000.0,-1.1464704
-2.7454706e-33,-1.1392249,40586184.0,-0.898485,-8.601205e+31,0.9763422,1.1586547e-28,0.6305151,-92626.414,0.7928874,-3.9336067e+32,-1.128573,1.6970366e-11,1.0102096,6.4061954e-16,1.0703118,2.6382747e-07,0.8787382,2442782.0,1.216068,-6.1255905e+27,0.7114055,-7.7102674e-22,-1.0641806,-3.249575e-10,-0.6707643,0.00024322438,-0.99594295,-468850900000.0,0.74073225,-3.9420885e-23,-1.108212
-843145.9,-1.0595218,9.16417e-11,-1.1102008,-40952304000.0,1.1279302,1.3334915e+38,-1.1665895,7.225905e-17,-0.95291865,444.2965,-0.96798545,13.695754,-0.9817307,-1205041600000.0,0.9027741,-5.039004e+26,1.1335397,-3.1333677e+30,0.8717116,-1698736400000.0,1.0706857,-266867230000.0,1.1105218,-7.311412e-31,-0.94480205,-8.616411e+26,0.7863431,2.4244984e-15,-1.147489,-1.5232488e-18,1.0124736
-1.8596952e-26,-0.8737898,-8.672766e-37,1.1677964,-8.491238e-10,1.0200145,1.2503484e-32,-0.8333048,111803070000.0,1.1608148,-2.0869186e-16,-1.065836,-7.544406e+16,-0.90829784,1.899004e+30,1.0330412,-3.7651626e-29,-1.0177782,61524513000.0,0.9024473,8.705171e-10,-1.2026464,-14664413.0,1.0293798,1.2365547e-11,1.174373,1419768800000.0,0.76727,258701950000000.0,-0.8786283,-5.655115e-10,-1.1276107
3.5040446e-10,0.9405179,4.409595e+23,-1.0369656,1.8138473e-38,1.0882275,5.68501e-30,-1.1864209,-6.384838e-17,1.135947,3.862905e-22,0.99978757,1.6932998e-31,-0.9535146,1.257891e-38,-0.8128031,5.84196e-30,1.2269053,-6.448707e+22,-1.0011275,2.8640943e+38,-1.0586712,2060146300000000.0,1.1791863,1034.6731,1.0852634,7.77889e-19,-0.9274452,6.996259e-24,-1.0858628,1.1829983e-34,-1.0230712
98.25806,-0.91049254,-1.9304031e-15,0.932361,1.18834245e-20,0.96168065,-3.5811272e-19,-1.1651392,6.374471e+31,0.9782109,-1.5307676e-33,1.0723808,-2.2249717e+17,-1.001279,4.3795712e-10,-0.9375741,-3.5412332e-15,-1.0446419,8.973278e+37,0.96135867,-3.2393495e-21,1.1186651,-1.815594e+33,-0.9552705,-1.8997178e+34,-0.8444788,0.10470735,1.0640486,22820230000000.0,-0.85065293,1.4156997e+27,-0.92039067
8.2840837e-32,-1.0968602,-4.2907857e-35,1.2696087,-5.5677525e-33,0.83399403,514599170.0,-0.9268098,1.6045863e-30,0.9850581,1.21912394e+30,1.1759436,6.467941e-30,-0.999908,8.234777e-30,-1.0238272,3.259663e-38,0.7879359,6.574763e-17,1.0548456,2.8955488e+24,-1.057386,-1.3795886e-08,-0.7029385,-6.873572e+23,-1.1238486,0.010743698,-0.954575,8.343915,-1.0271165,322682.75,1.0525262
-6.772692e-36,1.0417124,-71.73482,-1.1049252,9.169651e+19,-0.9166044,4.136359e-16,0.85723007,-0.0004763558,0.93176156,57412852.0,1.1274652,2.3877179e+33,0.8785799,-1.9061808e+26,1.0194751,-2.69742e-22,0.9695264,-2.704817e-32,-1.152336,-5.4468165e-34,0.99375373,-5.7309317e-13,0.89598495,-4.5076805e+18,-0.8689232,-3.1015743e+23,-0.9571061,5.6235007e-05,1.0741657,1.23712525e-08,-1.173456
-3.685315e+27,0.9533509,7.5595314e-29,-1.24872,6.428089e+33,-1.2130308,5572315.0,1.1277727,-3.7692325e+21,1.1943188,-4.391671e+25,1.1022195,1007.3609,0.93579435,-0.03097547,1.0274818,1.1207122e-36,-0.9692729,-1.6891497e-10,0.9901764,-3.958718e-34,-1.0795652,2.9424357e+26,-1.2348126,-2.598145e+38,1.0631051,8535468500000000.0,1.1205996,-6.5677176,0.8759857,-1.5844365e+36,-1.072601
3.1842018e-28,0.8859127,0.00028400915,-0.5644104,1.5710339e-15,0.96342176,-7.151175e+21,-0.8043935,-3.8720776e+25,0.9893559,-206977730000000.0,0.9305106,-4.967132e-24,1.1348815,-9362627000000000.0,0.86484945,11116006000.0,-0.96333,114.214806,0.8933799,-9.84e-11,1.1625006,-3.2782447e+26,-0.8884981,-1.7666829e+26,1.0251263,-3010915.0,-0.96335816,4.2381558e-19,1.0363255,-6.268658e+36,-0.96714985
-2010543.4,-0.8528831,2.147397e+17,-0.99857664,-1.3496138e-05,-1.1943078,0.47388995,-1.0039799,2.3381932,-1.036572,-0.21310687,-1.1124799,-2.4199534e+22,0.79866576,6.448358e-13,-0.9429711,-2.5385376e-09,1.1656181,-8.1725176e-23,1.0487123,5.5527842e-27,1.0339812,-2.4139682e-32,-1.1220441,-5.6532685e+23,1.0029407,-2.3296727e+17,0.8783425,-930734400000000.0,0.9469702,-5.456004e-08,-1.1377484
-2.4821153e-23,1.1276124,-2.310168,0.7581732,-0.000122009216,-1.0931708,-2.2611069e-07,0.95581615,-2.2849941e-38,0.9766853,-3.1145559e+16,1.226377,-4.6767792e+22,1.0375416,17379598.0,1.113525,2.8999664e-36,1.2111093,62499376.0,1.0599746,129502940000.0,0.99302655,-5.4228407e+16,1.043219,0.00059533975,-0.6880435,1.8667228e+31,1.0184544,1243606500.0,1.1821375,3.040463e+23,0.77750003
-855470960000.0,1.147296,6.785024e+36,-0.8223997,859732.75,-1.1100119,-1.0530164e+34,-0.9522611,-1.2844845e+21,0.8356759,0.0013045061,0.94597393,-259746780000.0,0.8666193,-1749201500000000.0,-0.9768967,-1529.7659,0.9731231,231842220000000.0,0.99946356,-3.6989525e-06,0.9403944,-1727314.4,0.8484819,-6.5833084e-21,-0.94013417,3053102.0,-0.6370291,0.0002902233,-0.6888391,5.872256e-10,-0.88962615
-4.798201e-26,-1.1233251,-1.1915205e-12,0.9991972,1574884100000.0,-1.0491527,-4.498097e-37,-1.0273615,-2.936125e-28,-0.9625607,1.036123e+31,-1.1473969,-3537.3154,-0.7545894,6744558.5,-0.82899284,0.3522764,0.9513019,-4.7722735e+37,1.0872444,2.7310477e+33,-0.9567348,-4.608114e-16,-0.9423951,2.807796e-27,1.074175,1095796700.0,-1.0015907,1.0098837e-26,0.8232786,9.4474376e+19,-1.1017998
119431.58,-1.1386406,-3868.3032,1.1467084,123581.66,-0.79241234,-1.2651529,1.0676206,41579.477,0.9850182,-536789400.0,0.963942,2.5754715e+38,0.8435971,7.1338784e+25,0.99121046,-24022288000.0,0.8924385,2.8258876e-22,0.9992828,-3.1001438e-08,1.0000523,3.6335992e+27,0.9640809,9.413669e-21,1.1127098,1.4471116e-18,-0.9719666,7.5881694e-08,-1.2083162,1.928063e-21,-0.9663796
-1.6802745e+37,0.9225991,-2.2957365e-23,-1.0110912,6.455983e-18,-1.1129813,0.1272537,-1.1006075,1.5050424e+28,-0.80375785,1.05045444e-07,-1.037798,-1.2774837e-25,1.050009,1.6996815e-05,-0.88907564,-2.724313e-29,-1.1910409,-174.9295,-0.9151718,-415384.47,1.1813247,-3.211855e+30,-1.1404903,3.1917197e-15,-0.9888353,-3.067831e-17,1.1527603,-9.0478676e+36,1.2537341,-1.2645696e-16,1.1459692
-3.017253e-15,-0.9941129,3.461016e+32,1.0415894,-2020160800000000.0,-1.1704397,-4.8754393e-21,0.42749497,-7.8876006e-23,-0.863579,293562600000.0,1.0532022,-8.971773e-29,-1.092055,5.008586,-1.1252985,2.3504594e-09,-0.99172723,9.761175e+35,0.99073464,2.6031728e+32,1.0836552,-4.2766286e+22,1.0611612,2.6898182e-19,1.12721,6.0062816e-10,0.8163688,3.3607439e-22,1.1050442,1.6683017e-22,0.95484173
-1.7411525e-25,-0.99729985,-57.50492,0.877129,-417920150000000.0,1.026499,424471200000.0,1.0898341,-1.2489067e+36,-1.2128288,3.4614906e-09,-1.1381077,-3.896402,-0.96270263,-4.0545983e-23,-1.0816122,2.3289125e-32,1.0909326,118.53555,-1.0996919,-9.548261e+17,-1.1047263,-1.5976524e+32,-1.0371821,-2.2116571e+21,-1.0647852,1.7200731e-12,-0.88755757,2.6070423e+36,1.0214636,1.3546773,-0.9435551
-1666333200.0,0.8775715,-1.0094435e+28,-0.47023982,-75035296000.0,-0.8851677,-6.0402695e-32,1.0234654,-4.9959033e-22,1.0641133,0.019699227,-1.0995678,1.7054399e+34,0.8165575,-20600558.0,-0.8730912,-2.0712887e-13,-1.0902615,7.3102404e-36,0.99152476,-463350900000000.0,1.1525162,5.4309844e-38,-1.1326923,-6.0679424e-13,-0.77809775,-1.7708253e-05,1.0074689,61764570000000.0,-1.1770988,2.87355e-22,0.98139304
-1.2129185e+30,-1.0414909,8.511358e-34,-1.1867698,5495082600000000.0,-0.97022927,0.44680664,0.9282241,7.5378654e-28,0.9400832,-5.3006023e-19,1.0092108,-0.022884818,-1.0259261,1.5076805e+35,-1.0734968,0.00035168073,-1.0333908,1.0002146e+24,0.8857383,4.4811686e-20,0.991437,3.9827807e+25,0.8748462,1.2396047e-15,-1.1384864,-50266580.0,-0.9838329,7.3142706e+31,1.1553396,21512634.0,-0.9763723
-2.767452e-10,1.2626748,-3.3949328e+19,-1.1888146,2.805778e+24,0.9985966,-19903562000.0,0.8904402,-4.442937e-25,0.98896545,-3.6362437e-24,-1.035157,7.797752e-18,0.83908784,-0.0026868226,-0.67099035,-2.8019524e-15,1.0161662,-538.2111,-0.82405674,-7.6749616e+24,-1.1441836,618596200000000.0,1.1847941,-3.2332993e-13,-0.9506122,1.7628598e-38,1.1497527,6.843758e+24,-1.0974545,-3.9840224e-20,-0.99165726
63273.242,0.9356524,986804200000.0,-0.95851374,0.28901684,-0.90442246,-1.060292e-25,-1.0907382,3.239645e+26,0.94006854,-52053230.0,-0.88700616,2.9577678e+21,0.950016,6.038293e-13,-1.1505363,-3.9264885e+32,-0.9085661,-2.6879435e+20,0.9863219,1.1928204e-27,0.9585939,-2.4324965e+29,-0.9609784,-1.3839001e-30,1.0930438,-5.608261e+37,1.0348271,9.280923e-09,1.1362722,15183499.0,-0.8834351
-1.4654235e+30,1.0832254,-2.0623728e+37,0.86413354,2.3494403e+34,1.1157644,,-0.90615284,1877571100000.0,1.0522044,-1.7234427e-08,0.91002804,1.3142869e-10,0.9865117,-1.8709844e-15,1.2667276,5.2975754e-16,-0.82436085,1.7631182e+37,1.0494174,7.814347e+24,0.8926507,1.638021e+19,1.1282237,4747192400000.0,-1.1825125,1.7399582e-11,-1.1788361,-773.5379,-1.1031268,-0.00032850355,-1.117387
,-1.0477515,-5.3583142e-27,1.1200953,-1.5184869e+26,-1.084372,4.887895e-32,-1.032771,-8.481169e+25,0.9376373,1.7538876e+33,-0.6935011,6.583348e+27,0.9817651,4.9950855e-12,-0.99825585,-5.1245076e-17,-1.0454005,789.10266,1.1256127,2.228417e-33,-1.1988245,3883286800.0,-1.0875478,2.213653e-26,0.8615954,-2.4700909e+23,-1.1418568,-3.5630474e+22,-0.74639,-3.7521817e-28,0.995469
-43265425000.0,-0.90738153,-3.9298878e-13,-0.9731277,9.949811e-26,1.0207099,-1.5454565e-07,0.84235275,2.6730956e-23,-0.97680193,-4.451052e-07,0.9316728,-1.1158775e+27,0.9734553,-2.8581169e-36,-0.7750778,-6.226322e+28,0.865848,-2.2027053e+16,-0.853823,2.2596802e-18,0.9497916,-3.7613862e-19,-1.0765448,9.916269e+29,-1.1013262,-34562784.0,0.8793173,-1.1281893e+37,0.77527434,-1.4121419e-14,-1.0902647
1.1363973e+21,0.9989909,-527524260000000.0,0.9782459,0.45329782,0.954593,2.0616653e-29,1.150994,1.3840428e-31,1.0458415,1.9438912e+34,-1.1601121,1.8849014e+37,-0.7883708,-2.9789186e+22,1.0830641,1.1217208e-10,0.8970214,-4.233742e-37,0.94984573,-1.6474351e+19,-1.0029507,-1.3039329e-21,-0.96852404,0.11796895,0.9529658,3223508000000.0,1.1487854,4586.7383,-0.9020768,-2540093200.0,-0.8985979
-3.075797e-21,-0.98600763,3.5369535e-10,-0.9328278,-1.8663966e+28,-0.7982027,3.200537e-18,1.0173544,104739.89,-1.0513082,4.3099928e-13,0.9934649,-30514500000.0,-1.2516061,15673348000.0,-0.8382889,-1944863200.0,1.1809858,-3.6166063e+23,-1.0490152,-4390308300000000.0,-0.91807085,-4286822700000.0,1.1088672,-1.8706103e+22,1.0539671,1.3375118e+17,0.94863933,2.9606801e-09,-1.0284142,-1.8972338e+31,0.9409396
-1.7807708e-06,-1.0364944,20.75337,0.9272631,4.3514318e+29,0.9509826,1.3499883e+30,-0.970622,1.2870166e-31,0.90227455,22.11865,-0.87885576,-3.8781083e-12,0.98937064,2.5375984e+33,-0.9313107,-1694507.2,-1.1509176,-0.070564024,-0.8146219,-3324746000.0,-1.2452323,3.5048046,-0.93820477,-3.1618065e-27,-0.911951,-6.5705053e-25,-1.125137,-2.2505172e+23,0.9464776,-0.011387401,1.0594486
-1.7031023e+37,-1.0718222,-0.23205122,1.0101588,-4.624252e-30,-1.0037193,-8.990389e+20,0.99262005,-2521665.5,-0.93095237,1.10157326e-13,0.74919444,-1.08022236e+36,0.90867484,-255664900000.0,-0.83755934,1914.4573,-1.1142004,-1.7509581e-08,0.9704891,1.2554581e-24,-0.88343674,1.15939565e-26,0.9385898,-4.7798622e-23,0.8786479,1.047054e-35,0.80648184,-5.5020037e+26,-0.972488,3.6207815e-13,0.83386225
1.8531378e-11,-1.1053066,-108796360000.0,0.9510718,1.8690551e+35,-0.96789026,-2.7662223e-17,0.8771489,5.7550885e+31,-0.9934761,-80147990000.0,0.6102451,1.0573531e-06,-0.98692524,1.3256161e+36,1.1008885,1.1030536e-35,-0.8975977,1.5343644e-15,1.0656551,-8.934867e-18,-0.80604446,5.338357e+35,1.056979,1.3813483e-16,0.95800614,-240522900.0,0.84895504,2.1511476e-10,0.8985416,2.0545665e-25,1.0267289
-5.705543e-27,-0.9597686,-115506110.0,0.83649087,-1.9567313e+18,-1.192826,3.8806055e-27,0.7896623,3.451003e-05,0.89659214,2.652033e-34,1.0789881,0.0062399185,-1.0332237,1.4148445e+36,-1.1272613,1.0221632e-25,-0.9183119,1.9947782e-16,-1.0461829,7.2332143e+34,1.1920838,1.1819858e+31,0.9644271,-2.4198896e+29,-1.0775561,9.368597e-38,0.7407873,-2.3101381e-22,-0.95034677,-6.5392487e-37,-1.1268489
5.0061924e-23,0.9558797,-1.6720488e-34,0.878308,-37064.94,0.91300476,1.0001619e-17,0.8855414,7.75044e+25,1.0551627,-1.2812514e-21,1.2105843,-3.7015927e-35,-1.0980783,-1380923800000000.0,-0.7770512,2.6053753e+34,-0.82138664,0.0006892928,0.95673317,-115634880000.0,0.98559433,-0.008633541,-0.90649664,-1.0165804e+37,-1.0144022,3.3678196e+34,-1.050397,3.8537863e-13,1.0999305,-0.010095513,-1.1225387
-4.2094453e-35,0.856588,-3.1208746e-37,-1.1537846,-4.8695096e+33,-0.9601195,1.7298728e+36,-0.90378845,-5.544783e-33,1.0340524,-2.0291749e-26,0.89061546,7.0587937e-12,-1.1380622,3.7582756e-32,0.94435525,2.8803368e+30,1.1371572,5509827000000.0,-0.96299917,3.347139e-10,1.1981248,-1.791571e-10,-1.0995485,-23442764.0,0.95292777,7.753068e-16,-1.162039,6.7623456e-26,1.0137398,1.6459458e-37,-1.0640737
2463661.5,0.84151274,-8.33265e-29,0.88599205,3.0578085e-23,-1.1950464,-3.5318837e-33,-1.0702401,1219.7059,-1.0701972,-4.5094987e+32,0.76676047,1.0959385e-31,-0.9860046,-6.3256594e+29,1.0530419,5.234862,-1.1773965,3.6018626e+25,-1.1583762,3.9259814e+26,1.0388726,-2.5937152e-29,-0.8912322,1.5312408e-26,-1.0264986,-9.430265e+28,1.04604,1.9225881e-08,0.7590675,-2.4340109e-26,1.0759518
1.3660719e+23,-0.98981845,-5.1999403e+37,-0.9150935,4.1801904e+37,-0.9997411,-384.84796,-0.95741504,-6.7963356e+19,-0.97936237,-24283537000000.0,-0.9897519,3902.612,0.99725497,-6.7399625e+23,1.1683444,-6.3500996e-11,-1.2512646,-8.2586377e+37,1.0199059,-0.5304838,0.9874858,-5.222076e-21,-1.124382,74325690.0,1.044826,-1.2296463e-18,0.96939707,-8.370716e-32,1.0138829,4244272.0,1.1564183
5.458226e-12,-1.1715752,1.7176356e+17,-0.8973205,1.0371102e+19,1.1817491,3.0224806e-05,-1.0935669,1.8849898e-28,-0.9247252,-3.9596897e-20,1.0950507,-0.010499835,-1.0331686,2.861031e-35,0.992053,-1.7755904e-19,-1.0411814,-488922.06,-1.0193647,-1.2447739,0.96562135,163289090000000.0,0.96082586,2.23528e-30,0.9005438,-2.1579807e+26,-0.954574,4943970300000.0,1.124203,1.2175902e+21,0.8836831
-63879230000.0,0.9021915,-2.4507117e+35,1.0746179,-2.6710048e-10,1.0682263,-770.04034,0.9558718,-4.9812298e-26,-1.0894277,5.0344967e-22,-1.16436,96721840.0,-0.9419434,-4.4697378e-13,-1.0635598,1.0044506e-29,-1.0011454,-6.081863e-10,0.85467803,6.693937e+25,-0.9016066,-2.6308986e-05,-1.0320183,525294470000.0,1.1591969,-1.9384541e-28,-1.1334672,0.08354073,1.1053272,2239157.5,0.90731186
-1.065037e-26,-0.788196,-2729976800.0,1.0346335,1.464053e-14,1.1547279,-4.7124174e-35,-1.1479799,-2.0263288e-26,1.0977712,-7.219179e+33,-0.7890216,-9.907085e+30,-1.0008609,4.7701583e-08,-1.068894,1.083582e-34,-0.93565625,2.6945729e-05,1.1187555,5.804654e+16,-1.0587157,2.9729658e-36,-0.81150335,-9.631688e+16,1.1276367,-2.63029e-28,-1.133616,-1.1241865e+31,1.1919998,-4.5301704e+19,0.92443675
-3.736494e-23,0.91882503,2.1734367e+36,-1.0927957,-3.0680382e-11,-0.9643902,-2.1605556e-38,1.151354,0.20790808,-1.1697277,1.0671662e-36,-0.8549092,6044.5024,0.95350593,3.3535e-09,-1.0274682,18555173000000.0,1.1908647,-9.2476537e-35,-1.0631329,2.0086983e-29,-1.1225843,3.0112326e-19,-1.1336421,1157419300.0,-0.9872169,-2.227111e+37,0.9056069,-2.4100766e-08,-0.9155206,1.5539028e-27,-1.1404257
7.31411e-12,0.9536405,1772707500000000.0,1.1305449,-8.295633e-38,0.8578214,-0.88274616,-1.1011374,-6.724005e-26,-0.70053065,-9.1228206e-24,1.1795081,6.0050886e-28,0.959036,197438.69,-0.90354943,-405.1868,-1.1315583,5.450575e-06,-0.9329935,3.604519e-06,-1.1364816,9.917017e+34,-0.66038275,4.0466227e-14,-0.890872,3.760084e-30,0.9612322,-4.8618733e+36,-1.1462508,-1.5731053e-18,1.0849719
-26122854.0,1.1808836,1.101946e+36,-0.92027247,-2.1166512e+29,1.0560589,-1.135788e-29,1.0686555,3.7999084e+32,-1.1067922,-1.9466087e+37,-1.0038686,3.2872512e-33,-1.0301082,3.353779e+36,-1.1459099,5.2237376e-32,0.83939296,-4.6218064e+19,0.97191215,-62.454124,0.8551508,-9.513905e+18,1.1418527,4.0938937e-23,1.1062075,-3591938800.0,0.7711084,6.1593437e-06,0.81277454,5.109634e-31,1.1893975
-7.712325e+21,-1.1254077,-5527384000.0,0.99387974,4.5977806e-14,-0.90279627,64169.547,0.83788055,1.7772181e+25,1.0097789,2.0003374,1.1126819,3.2285465e-31,-1.1839988,-1480684400.0,0.8319011,-346096.47,-1.1268785,-6.163249e+31,-0.9813721,3.6978836e-06,0.90325624,-0.23323315,0.9672552,-6.821432e-10,1.0875001,4.5645456e-36,-1.0846078,1.3528626e+24,-1.0298686,-3.4323135e-17,0.9587925
-6.867471e-21,-0.9173368,-437637440.0,0.9950564,-2.0667236e+28,-0.9011061,-1.0975038e-15,0.9349986,-1.2421911e+22,-1.148932,5.9560746e+25,-1.0186114,1.4326931e-30,-1.1597074,-29178930.0,-0.8081585,7.1913513e-07,0.7956932,1624375400.0,1.1269706,2.2588945e-38,-0.97686464,3.9723513e+34,1.1574994,1.28782575e+23,-0.94376194,6.80322e-26,1.0557957,1.8652585e-29,1.0534586,4.9141074e-25,-1.2158092
-19.05716,0.98574424,-1.7665121e-26,1.0835737,0.02528339,-1.0389085,6.165771e-38,1.075165,2.3428005e-36,0.7955203,-117686620000.0,-0.8257629,3.3477045e-37,1.2682279,-1.6101767e-29,1.0658207,-147267.31,-1.0237957,-3.9477297e-13,-1.0171932,4.009334e-22,1.1146886,1.8000388e-25,0.99817944,-0.013617866,1.253735,-32558.637,0.8208056,4.9885285e-10,-1.1171308,-4.409294e-17,-0.93972486
5.2183632e-11,0.8522243,-1.6033128e+33,0.9195635,3.7798792e-16,1.0600489,-6.904975e+35,-0.94886225,-0.092370965,0.9473404,3.8988447e-22,0.9873903,501099780.0,-1.2381102,-29.303028,0.82950544,3.0421987e-12,0.99449456,1.2399315e+22,0.955918,-5906981000000000.0,1.0239067,2.933757e+20,1.1475142,-1.1570985e-30,0.867416,20837.469,1.0288364,2.4865332e-05,-1.0220948,-1.59826e-25,-0.8994159
-8208824.5,-0.9596542,-2.2783725e-34,-1.0234823,-1.9403086e+26,-0.9653249,1.0450355e-05,-1.0167862,-4.481526e-15,1.0845711,-1.8736622e+26,-1.0759712,1.3249966e-16,-1.0662037,5.2374317e+26,-1.0345507,-2.818169e-37,-1.0653523,7.612064e+32,-0.9182264,5.900724e-27,-0.8425592,24578.807,0.5239438,-3.2195466e-20,1.141516,-3.370436e-21,-0.99334204,3.1289637e-21,0.9312517,-7959816000.0,-0.8935977
-3584972200000000.0,0.90351474,6.196897e+16,-1.0336838,14490524000000.0,-0.956315,7.3756477e+31,0.91884553,-7880145000000000.0,-1.1323436,-3.4464556e+20,-1.1336629,-4.9281416e+36,1.0828416,-3.1790733e-11,0.8057134,-6.6840255e+24,0.9324534,-5.7691073e+37,1.1262449,-5.122657e-33,1.070462,-1.6501916e+27,0.9382199,-4.336898e-14,0.8004406,3.5078688e+16,-1.1056505,902108540.0,-1.0415355,-8.620314e-17,-0.84629965
-130526110000.0,-1.0037588,-3.1892216e-13,1.137883,-6.0484112e-18,-0.8803557,1819845600000000.0,0.9920172,7.859903e-20,-1.0461892,117.72402,-1.0182478,-2.2028637e+22,0.98762745,113487.41,-0.93478584,-3.3147728e-21,-0.9108749,2194419700.0,0.834817,2.4595854e+33,-0.93319446,0.0059124073,1.0915208,-8.2461686e-16,-1.1349277,-6.7222967e+33,1.0000317,-1.0305351e-12,-1.0881722,5.801378e+37,1.0224683
-4.441318e-12,1.0215888,1.7578151e+20,-1.0845971,2.723332e-22,1.0449482,-1.5312619e+21,-0.9061845,3.3448396,0.9494625,4440.0156,1.0260583,-9.2024543e+27,-0.92638373,-1.9265975e-08,0.9912412,1.2251583e+32,1.1094928,959481.44,0.93922585,4.2138638e+24,-0.94417906,4.3951366e-23,0.9129181,0.0050716735,1.0966254,-1.4167141e-33,-0.94289726,-1.5801847e+23,-1.0186746,3.8675432e-17,1.1230465
-9.88641e-23,1.2559441,4.1180223e+24,1.1231245,1.520707e+35,-0.9779366,1.118925e+34,-0.9459246,-2.1960871e+26,0.8832036,2.1975723e+20,1.1779684,-8.542157e-22,1.0006977,0.0018372036,0.9466743,1622968.0,1.1102254,1.2722503e-06,1.0692614,-3649653500.0,0.9227146,9.808596e-27,0.9661724,7.985166e-23,-1.0026972,-5628925000000000.0,0.8099244,-85731000000.0,-0.9239659,2.8391178e-17,-0.9402213
5.235299e-26,0.98054373,17013150.0,-0.90752095,346.03967,-1.0423037,0.4301915,-1.0709908,1.2323533e-15,0.96197426,-1.969981e-22,0.98196715,-1.5752341e+31,1.1311817,-6.959257e+36,-0.91865534,-8.656548e-34,0.93716884,-5.872797e-25,1.1326717,4.2777114e-33,-0.9198292,-8.336766e-33,-0.98296493,-41748.004,1.2076018,-1.5819209e+28,1.0475861,-8.54985e+21,0.78083116,-6645520.0,0.9659719
4.829676e+16,-0.9703137,1.0101823e-25,1.1599116,-22453358.0,-0.8612422,-2.2619242e-09,-1.1132011,-1.1587363e-17,-0.78434545,2.2299821e-14,0.89628994,8.7581165e-32,0.93613684,2.5541417e+25,0.84766644,-5.9308054e-14,1.1421702,-6.9517124e-34,1.0153636,-3.3915971e-38,1.0732611,2.9575656e+23,0.9808589,-3.473766e+17,1.1332462,1.7251179e-13,0.66407067,5.923277e-32,-1.0698007,24.472338,-1.1155908
-2.5976782e-08,-1.0177938,1.8128642e-15,0.96463525,-6.9835983e+25,0.98644423,3.1850657e-32,-1.1455449,-1.8869262e-11,0.6916617,7.659658e-28,1.278236,9.6143475e+17,1.2092062,1.20000956e+24,-0.77106535,1.5818383e-22,0.9514687,5.1565903e+26,-1.2187899,-3.176741e-25,-0.8640168,8182.8076,1.1095232,7960.409,-0.9484034,1163624600000000.0,1.0070466,-1.7820467e-11,-0.82735884,7.2510346e-21,-1.0723108
-2.0357532e-16,-1.1742022,-7.930884e-18,-1.0039513,-443.4293,1.0210688,104800.766,-0.9703733,3.763739e-38,-0.940333,-1.9079659e+21,-1.1346308,-1.4428085e-15,-0.86873585,4.743581e-38,-1.0371981,-4.3373294e+31,0.9645441,-1.1816382e+30,1.062439,1.3337046e-28,1.1396381,-1.9538073e+30,-0.94776464,2.7074275e+19,-1.0652748,4.5726737e+34,-0.9950207,-765053760.0,-1.1719149,659334400000000.0,-1.084981
-7.912554e+17,0.7833674,-4.6150621e-38,0.9671412,-1.036801e-27,-0.8822707,-240018400.0,0.9465754,-1.0522015e-15,1.2277409,0.012317884,-0.9501005,-3.240766e+38,0.9837204,4.2208754e-05,0.9039257,8.7568885e+23,0.9801369,-1.7924024e-26,-1.0808296,-18110826000.0,0.99280167,-3.0020197e-36,1.0055652,-0.0004773396,1.2053378,-6.329002e-27,-1.2486216,-9.337338e-06,1.1403358,-1.5098852e+18,-1.0566148
2.558698e-29,1.0740829,-7.280953e-32,0.9302357,-7.367678e-24,-0.9210908,-9.4477926e-36,1.0081209,3.4338603e+28,0.4517036,9.6546155e-36,-1.0058081,-2.2954418e+32,0.853364,343945450000.0,-0.7842208,-8.4386073e-13,-1.144758,-2.5501962e-38,1.177006,-39329557000000.0,1.0714514,-2.4524359e-26,-0.956882,-1.0617291e+32,1.1027884,-3410501.8,0.98383236,2.2870968e-17,-0.9434815,2.9375186e+23,-0.93774635
-380.6339,0.95450956,2.5921494e+26,1.0437499,-9.695293e-37,0.7735446,-4.8666876e-16,-1.0378773,-5.4026325e+16,-1.0735867,-4.8044035e+33,-1.0298595,1.6856644e-06,0.9536475,710112500.0,0.9955002,5.8305865e-38,-1.0182052,42236.434,-1.0863304,-1.1938398e+36,-1.084928,-1.0442569e+26,-0.83574826,2.5372554e-16,-1.1273142,5.755131e-38,-0.8389867,2.9793885e+25,0.95218915,102.72699,-0.98515224
5496563000000000.0,0.95288646,7.1886505e-05,-0.9885868,-8.086867e+37,1.1820987,-0.28051263,-1.0752797,3.9335768e-22,-1.0094734,-6.1402234e+27,-0.6301747,5.024257e+22,-1.1377082,-2.902213e+22,1.1390969,-83282210.0,-1.129299,-9.918514e+16,-1.0746665,-1.5590031e-25,1.0738559,4.1991713e+24,0.97316855,3.2730342e+18,0.9041359,2.562966e+27,-0.96816814,-5.5818078e+22,1.0374581,-3.373915e+36,0.72569036
8.674211e-28,1.1248974,4.868984e+34,1.0445765,4.196964,1.0209366,1.4670651e-28,1.1618402,45200.48,-0.96124536,-1.8896307e+30,-0.9713432,8.4998717e+24,0.98402476,-5.657381e+28,-1.1331607,-2.7821007e-23,0.9866656,-0.01309,-0.8040562,-3.416281e+34,-1.1173644,-3.4344533e+25,1.0785314,5.093717e-21,-0.9687974,7.261857e-05,-0.6932935,4.4111118e-11,0.99033433,-2.1626689e-38,0.9755487
-638.88086,-0.9076586,1.2203563e+18,0.8124502,-1.568428e-17,-0.8880303,1.352749e+36,1.1127359,1.9346673e-27,-0.9182165,-5.9294314e+32,0.9672503,-8.110525e+35,-0.9554512,-2.8942063e-29,-0.9770331,2.5508734e-12,-0.7162725,-22472.33,-1.0743843,108701290000000.0,1.1448325,4.902755e+26,-1.0759028,1.8064528e-06,-1.210964,-1.1563861e+38,-0.9927234,-1009681450000000.0,-1.1306804,-1038445760.0,0.9517311
-2.5984774e-14,1.1319959,3.3628973e-35,-1.0685401,-5.236936e+36,-1.1070082,942368640000000.0,-0.93792975,-7.136668e+29,0.8814312,2.4025153e-13,0.94631773,7.327232e+23,1.1133697,-5.220259e-07,-0.9790701,-1.194305e-07,-0.8673172,1.7724328e+35,-1.0133106,-2.829039e+27,-0.89639,6.5947465e-26,-1.0173523,-4.5425294e-10,-0.95363855,-1.3849798e-08,0.8833539,-61479990000.0,0.9525318,58368936.0,-0.9630181
-1.2296716e-11,1.0600042,-1169207.1,0.80697125,-1.7942146e+19,1.0366052,1.8565125e-19,0.98509884,-0.004000599,-1.1283017,-3.6239365e-09,-0.9963296,167.88196,1.232448,1627502700000000.0,-0.8625138,-314978860000.0,0.97082776,6.2208773e-22,-0.9679666,5.212212e+29,0.9724392,2.1424115e-38,1.0044234,-1763904100000000.0,1.0528966,1.6192814e-29,0.9784325,-0.008635717,1.1009629,0.001871818,0.98923993
5.7522643e+25,0.9568868,-1.7681776e-12,-1.0645376,6.164952e-16,0.9917615,1194503200.0,0.75439286,1.6958743e-29,0.82655454,1396049700000.0,0.8825485,82649.31,-1.1552082,-192841020000.0,-1.1760604,-7.705219e-07,-1.0854818,6.9985374e+33,-1.1158049,1.521855e+18,-0.9340862,-3.1904326e-17,-1.0289382,-2.5450591e-15,-0.9868972,0.0009402659,-1.057918,-45684.4,-0.856002,-1741045100000.0,-0.9724128
-4.013728e-37,-1.139888,-6.485547e-09,1.0318787,-1.2478372e-14,-0.9714545,9.63789e-33,1.151622,1.9804423e-29,0.94327813,-0.011258698,-1.1771538,1006938.2,-0.9952498,-7.150958e-25,-1.1975551,7.893265e+20,-0.94862664,-1.04104354e+37,1.112634,3.3761546e-26,-1.1022696,-1.0985524e+29,-0.93898183,5.1698507e-20,1.1773189,2.5796023e-20,-0.6894851,2.900176e-34,-0.94243175,1.096445e-12,-0.7565701
1.0717999e-06,-0.95412767,-3.614021e-22,-0.67157936,2.7893306e-22,0.9354086,1.7908333e+34,1.1386937,28728277000000.0,0.971916,-1.015266e+20,-1.2532084,7.386277e+26,1.064981,-4.0895913e-32,0.7793833,3.0218579e-18,1.1062548,4.2656813,0.991632,-3.3380695e-27,-0.9364698,1.194116e-10,0.9778819,-1.1878505,-1.1727731,4.9184396e+19,-0.9217926,-1.9883902e-19,0.97213155,-7.1971846e-35,1.0538808
1.487065e+21,0.72593945,1102083000000000.0,0.8826807,3599139.2,0.8306791,6.4509865e-21,-1.1255988,27319.744,-0.82523274,2122998500.0,-0.9327118,-1.5574713e-18,1.1406119,1.539561e+29,1.0200137,-8.30788e+23,0.6485906,3.7458918e-07,1.067259,-6.805562e-21,0.99780107,-601.87164,-1.0177665,-3.058034e-37,-0.8921803,3.5571905e-29,-0.99074167,-5.3658975e+28,-0.9901505,6.6489303e-21,0.91950965
-0.0021204303,0.8598992,-2766.8032,1.0258777,-1.8296763e+32,0.7906658,-5.2881405e-05,-0.99143577,-10.19626,-0.88202566,-1.4185043e-18,0.94436514,3.2509544e-22,0.93011004,4227095900000.0,-1.0109881,1.6597747e-11,-1.0313976,5.2487423e-05,0.98611754,5.641216e+22,1.1571622,-74.40626,1.073929,-1.013441e-30,1.0699073,2.1147857e+22,1.0113982,-1.3860292e+29,1.1379175,-5.2424803,-0.9366852
37251910000.0,-1.0278463,6.549747e+26,0.9782299,1.3215168e-16,1.0087665,3.5070318e-28,-0.8790506,-1.300557e+21,-0.9464019,-5.153366e-26,-0.82147783,1.3620682e+16,-1.123806,147839.08,1.1379267,-3.3942888e+38,-1.0022106,4.5500177e-11,-1.0420382,0.0036913345,-1.082278,1.0377169e+25,-0.9063427,51.052498,1.1089747,188849100000.0,0.7810713,3789940.5,0.94312793,2.7529217e-15,0.9293549
-16847.178,-1.0449681,4.523549e-33,-1.2014705,3.4836916e-25,-1.1142809,2.0745336e-13,-1.0024225,13695987.0,1.0252631,157.03314,-0.8518324,7334055.5,-1.0532172,22997.152,1.0115718,-4.6994884e+27,0.9511496,4.191929e+17,-0.87953526,5.7181385e-38,-0.87672925,-2.1764696e-16,-0.9762632,-1.5336563e+34,0.95131207,6.215366e-05,-0.9913347,8.467227e+17,1.051177,2.4386515e-18,-1.0552638
-623749.56,1.1354111,-1.1761659e-20,-1.1431174,-1.036552e-15,0.9819257,-1.17370345e-08,1.1461906,1.4433973e+28,-0.87727934,-5.7882123e+16,1.141697,1.3204547e+21,0.83098745,-5.632436e-36,-0.8162205,-7.720667e+19,0.9840654,-5.125299e+32,-0.9284917,1535.7573,0.85676974,7.5525333e-19,-0.9854721,7.768591e-12,-0.94866,-233151.95,-0.9781481,-1.9777188e-15,1.0174315,-2.616646e-11,-0.89679414
3.6002014e-24,-0.9396025,-4.128975e+24,-1.0600821,4.9479004e-05,0.722957,-2.116642e-12,-0.9444629,2.8627779e-30,-1.018445,-1.0762934e+21,-1.1620312,1.2354289e+26,-0.95436674,5.630653e-07,-1.009343,863714900.0,0.90380776,107581.47,-0.93938005,-8144803.5,-0.8886032,9837101000000000.0,-0.9139198,-1.08196555e-36,1.0258417,2.7660124e+17,0.9421156,-4.009585e-22,0.7972719,-0.75392187,-0.8991314
1.2731649e+23,0.93606454,-3.445267e-27,-0.8447446,-2.279881e-37,-0.85742384,-12351760.0,-1.0848614,-218935.7,0.868247,-558287740.0,-1.1241311,-2.8565805e+35,0.9464022,-5.538543e-11,0.96688944,-1.2629765e-10,1.0662874,8.5341626e+26,0.9577477,-1.4831058e+37,1.10776,-9.42022e-24,1.1193167,-2.644987e-34,1.1151202,3.2081338e-24,-0.9762854,-1.2709246e-12,0.98142445,8.6717394e-10,0.932063
-0.027406655,1.1630013,-2.858628,0.82914937,2.336557e-15,-0.9800918,7.089203e-29,1.1596656,-4.377251e+18,-0.97010654,-2509248500.0,-1.1156902,-2.4799814e+21,-0.9912332,-1.00071826e-10,0.7684263,5.870563e-11,1.1587098,-4.2517288e+23,-0.8565078,-1.231869e-21,-1.1471105,2.317681e+36,-0.8370885,-3987688200.0,1.1804928,1.08685826e-13,0.95150846,-6.5981457e-22,0.91815317,4.454376e-14,1.1252717
-4.698119e+36,-0.9959108,-3.1082013e-14,-1.0628576,2.0959838e-34,-0.9569518,-2.8288373e-24,-0.9650088,-7.4074993e+24,1.1266079,6663052500000.0,0.5525197,169.47275,0.89345264,1592158200000000.0,0.89844686,3462355200.0,0.9891988,-490938.3,-1.1240338,-4.8485022e+23,-0.96773165,3.0400075e+18,-1.09147,2.5498078e+27,0.9719711,3.587641e-16,1.1119146,1136666900.0,-1.0104562,-242837090.0,1.0771556
4.6707193e-08,1.0092605,981007860000.0,1.0274298,-1.650895e-27,-1.1298703,8.030581,0.9943682,-2.382904e+36,-1.0621526,-8.12541e-36,-1.1293613,-2.1426358e-13,1.0575386,2644674.8,-0.8461513,5.8818473e+26,0.9114933,-0.000107162996,1.023577,10352.986,1.0613414,-7.832313e-25,-1.1416076,130.17993,0.9315103,-624726140.0,0.9945015,-2.11972e+27,0.95057374,-7.3647136e-34,-1.1363616
4.1886854e-16,-1.1484048,-7.447018e-07,-0.94438463,-3.944095e+30,1.0820186,-3.4567235e-20,0.89565194,8.263311e-29,1.0159074,-9.545009e+33,1.1493442,0.007514369,1.1859907,8.5682145e+22,0.94635475,-1.1965975e-20,-0.9237235,1.8535941e+30,-0.93001014,-2.938975e-11,-1.0455415,-1.6082578e+27,-0.91597545,3.4380128e-06,-1.0440462,-1.2254193e+34,-0.9385676,2.3155255e+22,0.8156827,1569570.4,-1.0706054
-7.1579367e+18,-0.8249385,-3.9891907e-24,0.978065,5.855691e+26,0.97423005,3.2931014e+18,0.9565154,3.6663723e-24,-0.9090771,-8.3427954e-23,-1.115172,-7.7057874e+33,1.1459779,9.592284e-23,0.93970656,-1.04136045e+21,-1.058218,-2.1522782e-26,0.95040876,-6.425219e-27,-0.8880089,-4.73514e-23,0.9986233,3.4532473e-22,-0.9466729,4.600337e+35,0.99608165,-6.6172923e-38,1.015649,5.3662513e-12,0.83276165
-7.352705e-05,-1.052544,4207361000.0,1.1263121,-7.318675e-06,-1.2472098,3.7670225e+37,-1.0317421,448547420000.0,-1.2098125,7.340759e+17,-1.1161509,61514772.0,-0.9499531,1.6636574e+27,0.98406166,1058494800000.0,0.9243336,-1.0814767e+22,1.0018072,-815946.5,-1.1394062,20374096000.0,-1.0557197,-8.206121e+22,-0.8181642,6.5043463e-24,1.0081841,-9.560346e-07,1.171868,486.9244,-1.1184793
-2.7654341e+17,1.0107625,-1393.6759,-1.240819,1.8790761e+33,0.98412216,1.220744e-33,0.8068405,-3.587146e-20,0.9844377,7.3585817e-32,-0.9559992,-5184107300000.0,-1.1297442,-3.6084886e+18,1.1292515,-1.6501011e-19,-0.8139123,621794400000.0,-1.0595375,-1.8270579e-35,1.0501567,3.4005743e+27,0.9730659,1147484800000000.0,-0.9396915,-4.3008328e-35,-1.0039177,-1.1001916e-28,0.96661353,-0.0008193284,0.88801086
